SVM-light Version V6.02
0 # kernel type
3 # kernel parameter -d 
1 # kernel parameter -g 
1 # kernel parameter -s 
1 # kernel parameter -r 
empty# kernel parameter -u 
39118 # highest feature index 
6190 # number of training documents 
3877 # number of support vectors plus 1 
-0.2660098 # threshold b, each following line is a SV (starting with alpha*y)
-0.11626441823975283695880023060454 15:0.10140575 160:0.47181168 4217:0.61931849 4218:0.61931849 #
-0.30070892996457676549226789575187 4:0.46574199 5:0.46574199 6:0.46574199 7:0.46574199 8:0.25210294 9:0.26226261 #
-1.9647523059181284388330368528841 10:1 #
-0.70624723515431353515481305294088 11:0.49833277 12:0.49833277 13:0.49833277 14:0.49833277 15:0.081595831 #
-0.23303422302101761687254111166112 15:0.10650174 16:0.65044141 17:0.37750399 18:0.65044141 #
0.1817127022965830396294961701642 68:0.039109807 219:0.052940268 487:0.088684529 507:0.068954259 652:0.11193045 676:0.072188087 1483:0.2175115 2125:0.41986516 2170:0.12788552 2226:0.13289483 4765:0.092800684 6158:0.13995506 6356:0.12399999 6573:0.090116501 7773:0.29958272 7884:0.098201305 11487:0.13995506 11488:0.13995506 11489:0.13289483 11490:0.1520246 11491:0.12788552 11492:0.13995506 11493:0.13995506 11494:0.13289483 11495:0.13995506 11496:0.12788552 11497:0.1520246 11498:0.12788552 11499:0.1520246 11500:0.1520246 11501:0.11193045 11502:0.13995506 11503:0.10736199 11504:0.1520246 11505:0.11581597 11506:0.1520246 11507:0.1520246 11508:0.19972183 11509:0.1520246 11510:0.1520246 11511:0.1520246 11512:0.1520246 11513:0.1520246 #
1.5252652837986402367675964342197 3:0.06463629 23:0.25395185 199:0.14014852 339:0.12450126 418:0.30090716 479:0.15310176 1013:0.12546353 1360:0.33512613 2138:0.18842532 2771:0.14584027 2915:0.16526078 3911:0.34574544 11514:0.20194155 11515:0.21266998 11516:0.38865921 11517:0.23101035 11518:0.23101035 11519:0.23101035 11520:0.23101035 #
0.11067027245008655145230846983395 10:0.047999959 361:0.15081905 619:0.12626135 1156:0.16176409 1508:0.16924426 2287:0.21860009 4754:0.17069647 6809:0.21860009 11521:0.25986204 11522:0.65580028 11523:0.23923108 11524:0.20653175 11525:0.25986204 11526:0.25986204 11527:0.15320146 11528:0.15320146 #
0.25750561323966164595233863110479 10:0.09789633 225:0.58532095 5399:0.14625703 8626:0.09147121 12107:0.13924228 12703:0.15302992 13380:0.14813508 14576:0.22291839 19633:0.24395691 19890:0.19830489 25303:0.23165016 37069:0.26499543 37070:0.52999085 #
0.062096349752584399650512381185763 68:0.24636059 378:0.08149083 386:0.21271718 4746:0.24821907 11538:0.2204013 11539:0.4408026 11540:0.4408026 11541:0.4408026 11542:0.2204013 11543:0.2204013 11544:0.2204013 11545:0.2204013 #
-0.1270187894606026324240133362764 146:0.267703 455:0.39228615 3911:0.48090658 4628:0.36082342 7020:0.6426369 #
-1.0917820425465611933191212301608 1397:0.46653378 1470:0.4441967 3911:0.45827222 3944:0.61239052 #
-1.198179927651483289707812218694 2170:0.43320271 6675:0.40928671 7773:0.33827144 7774:0.51497203 7775:0.51497203 #
-1.2525573585044711411029538794537 174:0.3216204 455:0.3557153 3911:0.43607408 6494:0.49019936 6495:0.58272707 #
-2 354:0.24971031 1360:0.41577244 1827:0.38719213 2249:0.40480471 3283:0.3499018 10062:0.5732035 #
2 1:0.3281129 3:0.26304415 1143:0.51465082 19892:0.74718416 #
0.29065287933170086409617738354427 1:0.1652045 8:0.11793956 10:0.087433986 1704:0.2422411 3703:0.30576351 3980:0.30576351 4649:0.26696491 15096:0.79637891 #
1.1295920216677532987858967317152 10:0.17924881 20:0.41201207 20657:0.89337331 #
1.0539395596765366303060318386997 1:0.14623718 8:0.31319633 10:0.077395588 68:0.10779286 219:0.1459118 693:0.12392621 1582:0.28303221 1704:0.21442911 5017:0.30392402 7602:0.30849814 13397:0.25740048 21365:0.38573843 21366:0.38573843 21367:0.38573843 #
0.60707263252520959895264240913093 10:0.17614448 1070:0.24636719 1131:0.3568092 2196:0.30101424 3705:0.31895468 4421:0.2910572 4729:0.40109617 6750:0.31600192 7101:0.32538712 15481:0.37053412 #
-2 3:0.076458737 20:0.23204052 126:0.30419648 779:0.13421229 1096:0.19548817 1143:0.29918593 2287:0.22987388 3981:0.12881415 4558:0.1929829 5133:0.22987388 5134:0.21718314 5135:0.23887812 5136:0.23887812 5137:0.25156885 5138:0.25156885 5139:0.18279743 5140:0.20449241 5141:0.22987388 5142:0.25156885 5143:0.25156885 #
-0.79286459813336329638389088358963 3:0.020511523 8:0.40183973 10:0.013541007 25:0.041726906 31:0.14589356 370:0.046280596 507:0.066501305 619:0.035618905 963:0.09126877 965:0.053974338 1117:0.039070744 1124:0.098077841 1135:0.046623364 1143:0.040131181 1145:0.04192448 1810:0.045034371 1894:0.041533872 1909:0.036726646 2124:0.53814983 2125:0.40492901 2126:0.061668083 2127:0.050569803 2128:0.061668083 2129:0.058263548 2130:0.073308259 2131:0.073308259 2132:0.05979443 2133:0.15344733 2134:0.1553141 2135:0.061668083 2136:0.051149108 2137:0.04698072 2138:0.05979443 2139:0.045329016 2140:0.067488171 2141:0.056969199 2142:0.040803272 2143:0.14661652 2144:0.054859012 2145:0.054859012 2146:0.10971802 2147:0.051771365 2148:0.073308259 2149:0.064083636 2150:0.26995268 2151:0.14661652 2152:0.055847991 2153:0.05979443 2154:0.061668083 2155:0.052443456 2156:0.067488171 2157:0.12816727 2158:0.067488171 2159:0.052443456 2160:0.055847991 2161:0.073308259 2162:0.073308259 2163:0.073308259 2164:0.05979443 2165:0.073308259 2166:0.073308259 #
-2 68:0.076455049 110:0.11091564 126:0.16541557 219:0.10349195 245:0.13687909 289:0.29437339 376:0.13718715 377:0.15781984 378:0.1011588 1143:0.16269094 1498:0.27359557 1656:0.22239724 2184:0.20500888 4177:0.18029821 4278:0.22640653 4421:0.3628287 4896:0.22640653 8148:0.25000104 9327:0.23619914 9916:0.22640653 9917:0.25979367 9918:0.11421723 9919:0.27359557 #
-2 79:0.23892082 1143:0.24082245 1156:0.27384651 1502:0.2459164 2082:0.24923983 2205:0.3106738 4592:0.32920238 4649:0.24810748 5912:0.27201402 7915:0.4049885 10337:0.21431415 10338:0.37006283 #
-0.19345498686943157773399093457556 1:0.2096934 25:0.34198606 78:0.36020145 266:0.49006417 1143:0.32890782 6671:0.60082102 #
1.1715141825099857353364996015443 1115:0.29295942 3050:0.24695347 3696:0.37700215 3911:0.6129064 28610:0.40951431 28611:0.40951431 #
1.5422519421307141485044667206239 15:0.04039241 478:0.65397322 3283:0.60234952 5785:0.38341442 37463:0.24668983 #
0.22267695191162184542577051615808 3:0.09859515 8:0.1755973 354:0.15351053 1157:0.18646044 1330:0.26845109 4167:0.28006223 6940:0.17354721 14730:0.29642722 24240:0.28742093 24859:0.28742093 27416:0.35237944 27417:0.30803835 27418:0.35237944 27419:0.35237944 #
0.69872634185292914477116710258997 326:0.27177715 455:0.28869846 7193:0.27177715 12513:0.26795179 18344:0.36753133 25508:0.43539345 25509:0.38575801 36633:0.47294119 #
0.68394613408364934858951755813905 499:0.16868758 926:0.22950418 1733:0.23669566 1996:0.23669566 2860:0.25903445 3549:0.24596711 3911:0.21056095 5066:0.21056095 7845:0.25903445 18025:0.25903445 19302:0.24596711 38484:0.56274647 38485:0.28137323 #
-0.70210124938351803347558188761468 10:0.013879362 68:0.057991523 168:0.045047611 219:0.078499153 286:0.040194143 378:0.051152959 418:0.048937585 467:0.40311614 468:0.047099475 469:0.053064995 470:0.075140044 471:0.052427191 472:0.15028009 473:0.18962701 474:0.079240337 475:0.22542012 476:0.061288536 477:0.069174528 478:0.19919579 479:0.049798947 480:0.059719399 481:0.1194388 482:0.038952667 483:0.075140044 484:0.042769551 485:0.063209005 486:0.075140044 487:0.087666854 488:0.065684922 489:0.046774667 490:0.15028009 491:0.069174528 492:0.075140044 493:0.075140044 494:0.054502737 495:0.075140044 496:0.069174528 497:0.075140044 498:0.061288536 499:0.045047611 500:0.075140044 501:0.03990237 502:0.18386561 503:0.17517813 504:0.18386561 505:0.095877588 506:0.17719501 507:0.068163 508:0.090095222 509:0.1194388 510:0.069174528 511:0.069174528 512:0.075140044 513:0.075140044 514:0.075140044 515:0.13136984 516:0.057243485 517:0.075140044 518:0.075140044 519:0.075140044 520:0.075140044 521:0.075140044 522:0.13834906 523:0.063209005 524:0.058392711 525:0.056229793 526:0.065684922 527:0.075140044 528:0.061288536 529:0.069174528 530:0.075140044 531:0.075140044 532:0.075140044 533:0.069174528 534:0.059719399 535:0.069174528 536:0.056229793 537:0.075140044 538:0.075140044 539:0.13834906 540:0.061288536 541:0.13136984 542:0.053064995 543:0.041133955 544:0.13834906 545:0.063209005 546:0.069174528 547:0.075140044 548:0.12257707 549:0.033247966 550:0.069174528 551:0.075140044 552:0.065684922 553:0.053753879 554:0.075140044 555:0.075140044 556:0.075140044 557:0.059719399 558:0.061288536 559:0.075140044 560:0.056229793 561:0.10366682 562:0.15028009 563:0.075140044 #
-1.2187662162143280131232359053683 478:0.24202095 509:0.29023394 977:0.36517766 978:0.33618549 979:0.2782011 980:0.36517766 981:0.36517766 982:0.36517766 983:0.36517766 #
-0.95935930813530145844225671680761 63:0.10449949 194:0.61296552 342:0.11582123 346:0.10597467 386:0.088655971 951:0.14933784 3545:0.15508223 3692:0.12508909 3693:0.1392387 3694:0.19956061 3695:0.19956061 3696:0.1837171 3697:0.19956061 3698:0.1837171 3699:0.19956061 3700:0.1837171 3701:0.1837171 3702:0.19956061 3703:0.12890752 3704:0.13225849 3705:0.13349432 3706:0.1837171 3707:0.19956061 3708:0.19956061 #
-1.7240179803190287532999036557158 68:0.097958975 219:0.13260035 686:0.22099668 766:0.24799532 4588:0.29008615 5007:0.33286384 5785:0.29590994 9136:0.38077846 9137:0.38077846 9138:0.38077846 9139:0.38077846 #
-1.14903387464717665622515596624 1:0.026705673 10:0.014133898 68:0.059055042 90:0.049427349 146:0.031875096 168:0.045873746 219:0.079938762 286:0.04093127 306:0.034271844 350:0.047006194 362:0.048306983 378:0.052091066 468:0.047963243 471:0.10677733 473:0.12873642 474:0.080693536 477:0.070443131 478:0.15213667 481:0.12162921 482:0.039667025 484:0.043553911 487:0.17854919 489:0.047632478 491:0.070443131 494:0.055502273 496:0.070443131 498:0.062412519 499:0.045873746 501:0.040634148 502:0.18723756 503:0.17839076 504:0.18723756 505:0.097635902 507:0.069413051 533:0.070443131 534:0.060814604 536:0.114522 541:0.13377905 543:0.041888319 544:0.14088626 545:0.064368211 548:0.18723756 550:0.070443131 552:0.066889524 557:0.060814604 558:0.062412519 560:0.057261001 686:0.13322891 1136:0.051687032 1306:0.066889524 1508:0.04983506 1554:0.049427349 1636:0.056337595 2142:0.042589836 2297:0.066889524 3192:0.054038167 3485:0.052783992 4090:0.059463587 4501:0.062412519 4689:0.056337595 4923:0.070443131 7916:0.062412519 7962:0.070443131 7963:0.058293283 8077:0.064368211 8131:0.057261001 8216:0.066889524 8809:0.076518051 8810:0.1530361 8811:0.22955415 8812:0.070443131 8813:0.076518051 8814:0.070443131 8815:0.076518051 8816:0.076518051 8817:0.14088626 8818:0.1530361 8819:0.22955415 8820:0.076518051 8821:0.076518051 8822:0.076518051 8823:0.076518051 8824:0.062412519 8825:0.070443131 8826:0.076518051 8827:0.076518051 8828:0.076518051 8829:0.064368211 8830:0.066889524 8831:0.070443131 8832:0.076518051 8833:0.064368211 8834:0.060814604 8835:0.076518051 8836:0.076518051 8837:0.076518051 8838:0.076518051 8839:0.070443131 8840:0.060814604 8841:0.076518051 8842:0.076518051 8843:0.076518051 8844:0.070443131 8845:0.076518051 8846:0.05473968 8847:0.1530361 8848:0.064368211 8849:0.076518051 8850:0.13377905 8851:0.076518051 8852:0.076518051 8853:0.12162921 8854:0.076518051 8855:0.076518051 8856:0.14088626 8857:0.076518051 8858:0.076518051 8859:0.060814604 8860:0.076518051 8861:0.076518051 8862:0.076518051 8863:0.058293283 8864:0.076518051 8865:0.066889524 8866:0.076518051 8867:0.076518051 #
1.1557479396157586126747673915816 17:0.16551843 31:0.0945943 78:0.17097528 169:0.11556054 289:0.1412431 376:0.13164735 388:0.24930285 1135:0.18137762 2124:0.23261666 2147:0.20140475 2504:0.20140475 4739:0.23261666 14263:0.21726394 17154:0.23990569 18850:0.198984 20435:0.24930285 23666:0.47981137 29014:0.28518915 29015:0.28518915 #
1.2792781205342040884431753511308 1:0.15068266 10:0.07974834 941:0.23448211 1143:0.47269681 1589:0.37741387 1624:0.28613591 5112:0.30886024 18387:0.43174133 18388:0.43174133 #
0.25432517410308236316396346410329 1143:0.28566861 1270:0.25844476 1909:0.26143387 2077:0.27612749 2082:0.29565349 2083:0.28682926 2554:0.37331194 4061:0.36409831 11845:0.35997459 17601:0.36852777 #
2 8:0.54605877 10:0.025301145 35:0.094488837 42:0.10085015 43:0.096733935 79:0.074392341 620:0.13567704 934:0.10886446 935:0.12610053 936:0.092525162 937:0.45390072 938:0.11522578 939:0.12610053 940:0.17995082 941:0.14878468 942:0.17171837 943:0.083099656 944:0.10250315 945:0.10886446 946:0.10435104 947:0.17841987 948:0.106446 949:0.12610053 950:0.090780146 951:0.2050063 952:0.10435104 953:0.11522578 954:0.106446 955:0.12610053 956:0.12610053 957:0.11973921 958:0.106446 959:0.11522578 20674:0.13697526 20675:0.13697526 #
0.73574267120873371172962151831598 25:0.45461547 385:0.15695667 553:0.19045751 1132:0.17197414 1539:0.16251634 1700:0.13111936 1920:0.20282167 2133:0.18575686 2146:0.19923002 4414:0.19045751 4588:0.20282167 5966:0.21715385 7649:0.15869965 8885:0.19601718 10039:0.21715385 11717:0.23273085 12054:0.35967264 21176:0.23273085 28758:0.26623166 #
-2 8:0.54605877 10:0.025301145 35:0.094488837 42:0.10085015 43:0.096733935 79:0.074392341 620:0.13567704 934:0.10886446 935:0.12610053 936:0.092525162 937:0.45390072 938:0.11522578 939:0.12610053 940:0.17995082 941:0.14878468 942:0.17171837 943:0.083099656 944:0.10250315 945:0.10886446 946:0.10435104 947:0.17841987 948:0.106446 949:0.12610053 950:0.090780146 951:0.2050063 952:0.10435104 953:0.11522578 954:0.106446 955:0.12610053 956:0.12610053 957:0.11973921 958:0.106446 959:0.11522578 960:0.13697526 961:0.13697526 #
-2 549:0.22872432 1270:0.25600764 1700:0.25458089 2077:0.2735236 2082:0.29286548 2083:0.28412446 5088:0.59123951 5105:0.47587559 #
-0.57132615847770762407265010551782 224:0.24389757 1630:0.27561858 1885:0.39576223 2707:0.31049696 3485:0.27561858 3486:0.3678281 3487:0.26480055 3488:0.3678281 3489:0.34927249 5056:0.26989064 #
-0.44968280970601914869888560133404 15:0.072243869 31:0.14634721 11221:0.44121727 11222:0.44121727 11223:0.44121727 11224:0.44121727 11225:0.44121727 #
2 467:0.8521412 468:0.11200824 469:0.12619497 501:0.28467795 507:0.081049919 686:0.20741907 704:0.12070438 779:0.087763816 1499:0.12326611 1885:0.17699848 2104:0.11842791 28718:0.17869209 #
1.8647836155283357140177713517915 1:0.0096612945 21:0.0097377002 68:0.14955014 110:0.010331281 219:0.20243578 378:0.06595733 506:0.065279342 627:0.012749657 740:0.099015705 861:0.012529002 968:0.094455019 1692:0.12742084 2585:0.016319836 4588:0.44286323 4746:0.20090441 4800:0.12742084 5007:0.50817025 7707:0.12742084 10013:0.11289469 10504:0.11643223 35182:0.58131963 35183:0.027681887 #
1.1845765268230001865390477178153 3:0.096369259 20:0.14623296 194:0.21158493 990:0.21440397 2099:0.22826655 2139:0.21296926 2191:0.22624303 2649:0.23504601 5138:0.3170796 8588:0.16734825 19435:0.26765832 33301:0.3444241 33302:0.3444241 33303:0.3444241 33304:0.3444241 #
-0.31462451218381309869798201361846 15:0.0730085 156:0.1758088 3398:0.44588712 3399:0.41048726 3400:0.44588712 3401:0.44588712 3402:0.44588712 #
2 69:0.25274932 194:0.061926503 468:0.31593665 501:0.10706379 506:0.41600972 507:0.13716833 686:0.058505774 693:0.029814696 876:0.16959885 2425:0.080117866 2924:0.080117866 2929:0.080117866 2930:0.080117866 2931:0.080117866 3996:0.07833802 4714:0.068793073 13452:0.076796249 31550:0.092802599 31747:0.10080577 31748:0.10080577 31749:0.10080577 31750:0.10080577 31751:0.10080577 31752:0.10080577 31753:0.10080577 31754:0.10080577 31755:0.10080577 31756:0.10080577 31757:0.10080577 31758:0.30241731 31759:0.30241731 31760:0.20161153 31761:0.10080577 31762:0.10080577 31763:0.10080577 31764:0.10080577 31765:0.10080577 31766:0.10080577 31767:0.20161153 31768:0.10080577 31769:0.10080577 31770:0.10080577 31771:0.20161153 31772:0.10080577 31773:0.10080577 31774:0.10080577 #
-0.87693033143447218780153207262629 386:0.13363127 467:0.71721804 468:0.188547 501:0.5590753 506:0.17733523 507:0.13643387 664:0.10159274 756:0.10909174 941:0.081682883 1885:0.14897355 4649:0.084823638 7063:0.10621398 #
-1.5631062232016819102398130780784 10:0.0022423153 68:0.049967825 102:0.006975967 148:0.022687055 339:0.039254747 378:0.11569804 467:0.90453398 478:0.0080453949 501:0.045125697 507:0.0055061225 656:0.0071959663 664:0.016400093 665:0.01581247 666:0.055488694 667:0.042273015 668:0.018496232 669:0.061764549 670:0.036992464 671:0.03136621 672:0.036992464 673:0.031896301 674:0.0082000466 675:0.0094337817 676:0.092229597 677:0.0077797454 678:0.055488694 679:0.0092481161 680:0.10901215 681:0.073984928 682:0.0061178454 683:0.0067281243 684:0.018867563 685:0.036337383 686:0.18318307 687:0.0094337817 688:0.070442617 689:0.0092481161 690:0.046240579 691:0.0094337817 692:0.0094337817 693:0.075398535 694:0.0094337817 695:0.0064936662 696:0.017875699 697:0.022827825 698:0.042061802 699:0.036992464 700:0.01609079 701:0.0094337817 702:0.0092481161 703:0.030742131 704:0.14760083 705:0.0090843458 706:0.029829763 707:0.017610654 708:0.035221308 709:0.027744347 710:0.018496232 711:0.021030901 712:0.0092481161 713:0.0094337817 714:0.027744347 715:0.0094337817 716:0.027744347 717:0.073984928 718:0.0094337817 719:0.0090843458 720:0.0090843458 721:0.018496232 722:0.014729422 723:0.0092481161 724:0.012464383 725:0.032154243 726:0.027744347 727:0.0080453949 728:0.023339236 729:0.027744347 730:0.027744347 731:0.016940014 732:0.039531175 733:0.032800186 734:0.0069424603 735:0.0068777776 736:0.0094337817 737:0.0094337817 738:0.0094337817 739:0.0094337817 740:0.0086843437 741:0.027744347 742:0.0094337817 743:0.0088053271 744:0.0085730497 745:0.0094337817 746:0.0094337817 747:0.0094337817 748:0.0094337817 749:0.0094337817 750:0.0082000466 751:0.013291 752:0.0094337817 753:0.0094337817 754:0.0094337817 755:0.046240579 756:0.017610654 757:0.0094337817 758:0.0094337817 759:0.0088053271 760:0.0092481161 761:0.0092481161 762:0.0092481161 763:0.0094337817 764:0.0094337817 765:0.0090843458 766:0.0079062348 767:0.0094337817 768:0.0042226869 769:0.017368687 770:0.018496232 771:0.0094337817 772:0.0094337817 773:0.0094337817 774:0.0094337817 775:0.0094337817 776:0.0094337817 777:0.0094337817 778:0.036992464 779:0.0059622307 780:0.0094337817 781:0.0094337817 782:0.0094337817 783:0.0071187001 784:0.0089378497 785:0.0094337817 786:0.0094337817 787:0.0092481161 788:0.0092481161 789:0.0085730497 790:0.0094337817 791:0.018496232 792:0.0092481161 793:0.0094337817 794:0.0094337817 795:0.0081205713 796:0.0089378497 797:0.0088053271 798:0.01416324 799:0.0092481161 800:0.0088053271 801:0.0076638088 802:0.0092481161 803:0.0090843458 804:0.0092481161 805:0.0066455002 806:0.0094337817 807:0.0090843458 808:0.0094337817 809:0.0089378497 810:0.0090843458 811:0.0081205713 812:0.0092481161 813:0.0094337817 814:0.028301343 815:0.0082843406 816:0.0090843458 817:0.0064936662 818:0.0094337817 819:0.0094337817 820:0.0084700072 821:0.0092481161 822:0.0094337817 823:0.0092481161 824:0.0094337817 825:0.0090843458 826:0.0094337817 827:0.022670399 828:0.016400093 829:0.018496232 830:0.0536271 831:0.0094337817 832:0.0092481161 833:0.0076092747 834:0.0094337817 835:0.0094337817 836:0.02605303 837:0.0067000338 838:0.0094337817 839:0.0094337817 840:0.0080453949 841:0.0094337817 842:0.018867563 843:0.0094337817 844:0.0090843458 845:0.0094337817 846:0.0094337817 847:0.055488694 848:0.0092481161 849:0.0084700072 850:0.0092481161 851:0.0092481161 852:0.0092481161 #
2 8:0.52963001 482:0.27548698 2902:0.34907362 17566:0.48922664 20255:0.53141689 #
2 8:0.52783674 10:0.065218247 386:0.15685712 13446:0.32504675 14576:0.29701516 34547:0.35307834 34548:0.35307834 34549:0.35307834 34550:0.35307834 #
-0.57608300855264871209726607048651 80:0.19819599 861:0.24097611 2572:0.41375229 2573:0.40560925 2574:0.53241861 2575:0.53241861 #
0.4452237900930440250846231720061 31:0.16195022 245:0.22488078 656:0.28942767 1270:0.24181531 2077:0.25836024 2082:0.27662987 2083:0.26837343 5088:0.27923146 6483:0.2999444 7482:0.32981262 14558:0.37196681 20297:0.38805524 #
-0.83108775553734948182693642593222 21:0.14008021 25:0.22666232 98:0.26898855 168:0.23873517 169:0.16135879 817:0.21301365 991:0.21461417 995:0.5379771 996:0.29799649 2467:0.22883469 2902:0.26157594 4729:0.33498365 4730:0.2663815 #
-0.22316824530376516699803346455155 19:0.35830963 20:0.25942278 21:0.21493991 22:0.38860381 23:0.33585075 24:0.61102134 25:0.34779203 #
-2 3:0.056772899 482:0.10518694 618:0.26429999 622:0.12386066 766:0.13214999 1847:0.36285537 1974:0.14329557 2196:0.25619584 2521:0.13996983 2554:0.43546745 4964:0.17737414 5306:0.17068824 6223:0.42988673 6224:0.20290655 6225:0.20290655 6226:0.1867974 6227:0.20290655 6228:0.17068824 6229:0.15184173 #
-2 3:0.15034735 21:0.18902162 110:0.20054381 4746:0.55711716 7008:0.76881021 #
-0.72722340651445771531058426262462 8:0.10859305 10:0.080504991 68:0.11212349 219:0.15177388 376:0.20118883 385:0.25694776 1633:0.27319291 1913:0.30065131 1915:0.2915498 1916:0.30065131 1923:0.2694934 3130:0.33203158 3131:0.35549426 3132:0.43583769 #
1.3226541114660821385484723577974 169:0.22662981 467:0.33339319 636:0.34583095 941:0.30375719 38303:0.5592944 38304:0.5592944 #
2 156:0.13066852 345:0.24799922 467:0.19754748 507:0.15031506 637:0.26338997 686:0.38467911 817:0.17727463 941:0.17998709 1187:0.19868065 1200:0.39509496 1201:0.19754748 1202:0.19044125 1256:0.17413577 2733:0.24038211 36978:0.33140209 36979:0.33140209 #
1.0892963272521321016483852872625 10:0.039542105 467:0.25521603 1123:0.15761448 2247:0.1255347 6121:0.19707724 7153:0.19707724 13059:0.19707724 13547:0.34922034 19726:0.15314403 24564:0.1871354 35882:0.21407291 35883:0.21407291 35884:0.21407291 35885:0.21407291 35886:0.21407291 35887:0.21407291 35888:0.21407291 35889:0.21407291 35890:0.21407291 35891:0.21407291 35892:0.21407291 35893:0.21407291 35894:0.21407291 #
1.5156300495159822361301849014126 15:0.070735671 501:0.45882514 1105:0.27905729 1281:0.29181501 4066:0.26892379 5912:0.26712427 11288:0.3232846 16298:0.43200618 16299:0.43200618 #
0.59751223465675562529497710784199 3423:0.35341939 7654:0.32461753 11704:0.50653005 11705:0.50653005 11706:0.50653005 #
-0.22780736731533551830963801876351 156:0.12821093 506:0.19170323 686:0.37744418 704:0.2196479 849:0.2268791 947:0.21177781 1187:0.1949439 1200:0.19383205 1201:0.19383205 1202:0.18685949 1338:0.18968953 3496:0.23941082 4005:0.23262036 4305:0.25269493 5912:0.20106328 9455:0.29935333 9456:0.29935333 9457:0.28425205 #
0.002000315293502863411845282826107 3693:0.49772242 4013:0.49208531 12381:0.45034784 18735:0.55435663 #
-2 3:0.23153512 635:0.50202918 636:0.51167625 637:0.65768188 #
-0.95509724445826271743698043792392 156:0.091227718 345:0.17314349 372:0.34070265 467:0.13792004 686:0.13428406 872:0.3525297 941:0.12566005 1187:0.13871117 1200:0.13792004 1201:0.13792004 1202:0.13295874 1249:0.21300307 1806:0.19463396 3263:0.1633984 3297:0.15789576 4153:0.15334155 4305:0.17980357 4714:0.15789576 4715:0.23137216 4716:0.15334155 4717:0.18388873 4718:0.23137216 4719:0.17314349 4720:0.17626485 4721:0.21300307 4722:0.23137216 4723:0.23137216 #
2 20:0.16158222 21:0.13387594 87:0.22816139 148:0.11854141 168:0.22816139 169:0.15421207 817:0.2035791 989:0.23231603 995:0.51414967 996:0.28479797 1007:0.26876861 1700:0.18743424 2576:0.23690876 4730:0.25458324 18885:0.38057637 #
0.15277363703399746142075343868783 1633:0.27057663 3844:0.70417958 5088:0.2468655 6223:0.30484727 11197:0.30118322 18459:0.43166378 #
0.43300755212949409989064974979556 100:0.23852687 148:0.091087282 549:0.12939668 1133:0.19956705 1230:0.13529806 1700:0.14402457 2140:0.26921809 2727:0.24600108 5088:0.16724159 5105:0.26921809 5986:0.23852687 10037:0.19562189 10279:0.22278406 14181:0.53843617 33561:0.29243508 33562:0.29243508 #
0.2557279582447313792670229304349 148:0.087983191 350:0.17352524 618:0.36793622 622:0.3448568 1102:0.16393995 1122:0.17832716 1145:0.1615423 1847:0.33675784 3068:0.17832716 3190:0.15281771 3241:0.34273505 5587:0.15722208 10337:0.13761139 11307:0.43038398 13827:0.17583719 18149:0.19080473 19170:0.20207372 #
-0.25940518893084746343546953539771 21:0.11263039 78:0.19195314 377:0.17002867 403:0.20213473 817:0.17127195 992:0.17821202 1848:0.23960173 2579:0.20852877 2870:0.47920346 3098:0.27989113 3099:0.24881817 5818:0.29476076 5819:0.29476076 5820:0.26934096 8456:0.32018051 #
0.029138835673300889084202935919166 3:0.07444784 80:0.099048704 299:0.23259553 306:0.11917378 377:0.14129747 385:0.1568654 622:0.3248437 1122:0.16797829 1686:0.18564886 2135:0.22382812 2918:0.16345504 3339:0.19911417 3986:0.19034676 6488:0.17187415 7790:0.20270373 8875:0.23259553 9420:0.19911417 22285:0.23259553 22286:0.26607686 22287:0.2449525 22288:0.26607686 22289:0.26607686 22290:0.2449525 #
-0.15493183814413641341545258001133 68:0.086814635 219:0.11751503 361:0.097927459 378:0.11486573 501:0.089602143 505:0.14353094 506:0.09947437 1183:0.10115595 1296:0.11514643 1499:0.1163937 1500:0.24845946 1501:0.12422973 1502:0.094321497 1503:0.49691892 1504:0.49691892 1505:0.10576349 1506:0.36211851 1507:0.29842311 1508:0.10989102 11255:0.16872954 11256:0.16872954 #
-1.9335240925275090084767271036981 10:0.015842676 21:0.060342208 31:0.19914092 68:0.022064921 71:0.051126584 84:0.053391214 143:0.042969361 165:0.046050686 199:0.10406809 219:0.02986777 386:0.11431019 487:0.10006784 507:0.038902521 619:0.041673325 654:0.059165545 674:0.057935961 940:0.056339398 1070:0.044317205 1101:0.12629755 1102:0.099557474 1103:0.39991617 1104:0.12442492 1105:0.16620925 1106:0.20450117 1107:0.16128591 1108:0.23412611 1109:0.11833109 1110:0.074976429 1111:0.066652693 1112:0.064183824 1113:0.074976429 1114:0.068167053 1115:0.061357673 1116:0.1099328 1117:0.091423802 1118:0.072150283 1119:0.072150283 1120:0.056843296 1121:0.068167053 1122:0.054147266 1123:0.18944633 1124:0.057374444 1125:0.054147266 1126:0.066652693 1127:0.066652693 1128:0.063148774 1130:0.29990572 1131:0.2567353 1132:0.27701542 1133:0.11706305 1134:0.054548297 1135:0.054548297 1136:0.11587192 1137:0.074976429 1138:0.065340906 1139:0.066652693 1140:0.057374444 1141:0.072150283 1142:0.20987447 1143:0.04695259 1144:0.055403084 1145:0.049050711 1146:0.06221246 1147:0.074976429 1148:0.059165545 1149:0.060571346 1150:0.059165545 1151:0.068167053 1152:0.055403084 1153:0.065340906 1154:0.056843296 1155:0.072150283 1156:0.053391214 1157:0.045384407 1158:0.074976429 5208:0.085769035 5209:0.085769035 #
-2 80:0.058316674 148:0.14638634 751:0.17151816 1013:0.085081898 1117:0.083492957 1230:0.21743748 1231:0.084752649 2142:0.087195314 2504:0.11063379 2588:0.099632666 3161:0.10382449 3165:0.11723199 4024:0.095628731 4414:0.11207002 4913:0.13178276 7572:0.13694473 7808:0.10582025 8131:0.11723199 8743:0.13178276 9351:0.12450738 10034:0.15665746 10035:0.31331491 10036:0.31331491 10037:0.41917855 10038:0.15665746 10039:0.12777883 10040:0.15665746 10041:0.31331491 10042:0.12777883 10043:0.15665746 10044:0.15665746 10045:0.11723199 10046:0.15665746 10047:0.15665746 10048:0.13694473 #
-1.2485036488279197541828580142464 1:0.17060387 148:0.15225707 169:0.19807324 325:0.42731041 326:0.28090212 327:0.41120344 328:0.48882031 329:0.48882031 #
1.2149013469113272289945371085196 10:0.054465156 71:0.17576686 194:0.18113898 635:0.35777318 4452:0.18753028 5088:0.16863026 7770:0.19724622 12451:0.20823677 15257:0.19724622 23061:0.22463393 26834:0.24804372 28313:0.27145353 28314:0.25775966 28315:0.54290706 28316:0.27145353 #
0.609791617756545556439107258484 19:0.25318211 432:0.2725693 627:0.19885372 635:0.26193166 2315:0.30124238 13797:0.36319381 28967:0.39747122 38424:0.43174857 38425:0.43174857 #
2 3:0.24174932 21:0.30393517 68:0.22227576 219:0.30087948 262:0.45243859 378:0.29409635 10465:0.64656967 #
-1.3031099928641203256063363369321 19:0.26607618 262:0.47519654 940:0.29804757 1097:0.32043549 1975:0.27047065 2649:0.30964443 4696:0.37009373 7880:0.45373669 #
-1.599744771301171875066415850597 19:0.2190347 22:0.23755355 262:0.58677477 428:0.29686216 1097:0.26378345 1975:0.22265226 2649:0.25490022 2804:0.37351739 2805:0.37351739 #
-0.53021661269870101751422453162377 3:0.16643012 20:0.25254494 262:0.31147721 340:0.26922023 779:0.29214409 3000:0.54759777 7541:0.59482187 #
-0.78752436334161068920423076633597 15:0.035577323 80:0.08088471 728:0.13924882 817:0.11622943 1909:0.10885619 1975:0.38856375 2190:0.13525835 2191:0.14272711 2195:0.32519948 2200:0.15344809 3971:0.14988671 4740:0.17722811 4743:0.32519948 7766:0.33770847 7767:0.18278153 7769:0.34538126 7770:0.14534923 8885:0.3199552 8886:0.17722811 8887:0.21728252 #
-1.6067889719689596450535873373155 68:0.10972591 219:0.14852846 398:0.24754305 505:0.18141024 576:0.20456569 861:0.19304483 1416:0.3093743 1417:0.39265591 1418:0.25282958 1419:0.27334058 1420:0.39265591 1421:0.39265591 1422:0.3093743 #
0.4938989924014733357005013658636 10:0.095835067 22:0.329972 3191:0.31872606 10037:0.34706783 18923:0.40319356 26940:0.47764051 37630:0.51883155 #
0.037344041103055551633627118235381 3:0.054753464 21:0.068837851 25:0.11138581 102:0.11245335 326:0.11245335 340:0.088570155 386:0.26080808 683:0.1084581 963:0.12181643 1116:0.12541035 1117:0.10429545 1133:0.13354449 2007:0.15207359 2160:0.14908063 2381:0.12640668 3565:0.15207359 3753:0.15552872 3981:0.18449222 4895:0.14407912 5771:0.15207359 6168:0.15552872 6229:0.14644065 8130:0.36030591 8131:0.14644065 8377:0.15961526 10215:0.14644065 10718:0.15207359 13018:0.13218565 14909:0.18015295 15592:0.14908063 17371:0.14908063 20578:0.16461679 24514:0.16461679 29176:0.15207359 30088:0.1956891 30089:0.17106488 30090:0.1956891 30091:0.1956891 30092:0.1956891 #
0.93618443910572746169407309935195 8:0.12730268 15:0.083658256 126:0.28438216 693:0.1511142 4720:0.3892377 18711:0.4466368 18712:0.51092869 18713:0.51092869 #
0.81833150650503794221179987289361 10:0.073121741 25:0.22532623 31:0.13130474 377:0.21022083 2142:0.22033858 2228:0.26003402 2853:0.23872314 5413:0.33300903 8074:0.34605306 10245:0.28319582 32459:0.36443764 32460:0.36443764 32461:0.36443764 #
1.2347308570502604219143449881813 1:0.095042646 49:0.2380527 110:0.3049008 126:0.15157269 165:0.14621249 370:0.17191941 414:0.25069958 964:0.16421957 1116:0.17452016 1989:0.44423899 3981:0.12836903 4882:0.20049949 6139:0.2221195 7648:0.2380527 8886:0.2221195 9279:0.22907959 14962:0.19231607 15371:0.27231959 15372:0.27231959 #
-0.38731883766774632960050439578481 169:0.19267292 582:0.29804978 1654:0.38783944 1885:0.47098643 2159:0.34015945 5413:0.39999235 5414:0.47549301 #
-0.42168827529326874392623381027079 84:0.16154148 143:0.13000892 144:0.13933185 371:0.20624754 1115:0.18564495 2213:0.1976967 2277:0.22685012 2462:0.20624754 3050:0.15649153 3191:0.1594175 3224:0.18106309 3563:0.21829927 3564:0.21166672 4452:0.16504237 5969:0.21829927 10215:0.19419579 10687:0.23890185 10688:0.23890185 10689:0.22685012 10690:0.22685012 10691:0.23890185 10692:0.22685012 10693:0.23890185 10694:0.23890185 #
-2 110:0.10315586 148:0.086092174 655:0.17578675 963:0.34411588 964:0.16667923 1007:0.19519655 1700:0.27225292 1885:0.27377871 1962:0.4070051 2142:0.15384291 2315:0.19285041 2506:0.19285041 4307:0.18489425 5140:0.20683807 5702:0.17325273 7770:0.18489425 8939:0.24161822 8998:0.21967439 8999:0.25445452 9000:0.20350255 #
-2 992:0.36367357 1538:0.48106533 1539:0.79769516 #
0.48766497024896782175318321606028 262:0.57332605 14527:0.81932724 #
1.3918071430936669319322618321166 21:0.09273909 91:0.14318193 340:0.11932266 376:0.12169738 482:0.13666832 619:0.12809429 991:0.14208376 1070:0.13622098 1156:0.1641124 1975:0.31430289 2196:0.16643634 4059:0.22177351 4882:0.19410492 6011:0.19728643 8245:0.22177351 16489:0.23046044 34329:0.26363444 34330:0.26363444 34331:0.26363444 34332:0.26363444 34333:0.26363444 34334:0.26363444 34335:0.26363444 #
0.92541531916129760038103313490865 3:0.13280028 879:0.3494527 1975:0.28292429 3849:0.32390177 4738:0.33518973 15488:0.36884269 15489:0.37722284 15490:0.37722284 21609:0.37722284 #
0.074825826465597045089594985256554 8:0.19108541 87:0.22989026 110:0.14311288 861:0.17355655 1150:0.26452005 1975:0.22857909 3275:0.2036327 13804:0.33520809 13805:0.33520809 14289:0.28232846 27513:0.31277215 30942:0.38346016 30943:0.38346016 #
0.11353823369417649635781941697132 110:0.10361949 619:0.13489959 766:0.18082318 861:0.12566194 894:0.17527865 924:0.14299378 1975:0.16550048 2765:0.20776771 5896:0.22645964 6830:0.15520386 8491:0.25559819 9933:0.21151327 10666:0.23355572 16938:0.19861926 18232:0.24270417 35499:0.27764061 35500:0.27764061 35501:0.55528122 #
-1.7835430258382558577068266458809 22:0.24864623 110:0.14591154 1143:0.21402289 1276:0.24864623 1975:0.23304911 2191:0.25681055 3827:0.58513522 10464:0.32888094 10465:0.29256761 10466:0.39095896 #
-1.5652456893030342044426106440369 3:0.11194944 879:0.58917099 1163:0.40010774 1164:0.40010774 1165:0.40010774 1166:0.40010774 #
-2 3:0.096974835 71:0.20660001 87:0.2077851 110:0.25870362 468:0.21724947 482:0.17967176 1908:0.26934025 5353:0.29155573 5354:0.30297607 5355:0.20660001 5356:0.3190721 5357:0.29155573 5358:0.3190721 5359:0.27545971 5360:0.3190721 #
-0.9316899081587646236357613815926 146:0.27246884 7358:0.50829571 11288:0.48946798 11289:0.65407753 #
1.4194868190776817051812486170093 1539:0.99999994 #
2 21:0.095782392 110:0.10162099 657:0.21640585 1007:0.19229221 1885:0.26970515 1962:0.40094924 2142:0.15155388 2183:0.35467133 2188:0.21159831 2189:0.20743385 2315:0.18998098 4307:0.1821432 5628:0.21640585 5702:0.17067489 7770:0.1821432 8939:0.23802318 9000:0.20047462 12036:0.12000488 27285:0.2506685 38322:0.27228579 #
2 148:0.20409395 1885:0.649032 1909:0.32826927 21908:0.6552422 #
0.40083054857997024722493506487808 10:0.038995802 21:0.074264377 85:0.14122377 89:0.10312599 148:0.26303169 354:0.091970272 991:0.11377901 1154:0.13991639 1539:0.51548636 2198:0.14563246 2200:0.14909275 2465:0.14563246 2582:0.13053988 3547:0.14563246 3981:0.099517912 4067:0.14122377 5647:0.18455 6042:0.1231555 7487:0.14407186 8954:0.18455 11402:0.12191519 18380:0.17219782 25931:0.21111536 25932:0.19435449 25933:0.21111536 25934:0.21111536 25935:0.21111536 25936:0.21111536 25937:0.21111536 #
2 1885:0.57368499 30703:0.57917428 30704:0.57917428 #
0.19956738313525967942752004091744 3:0.1415823 377:0.26871458 941:0.27482107 13809:0.42566848 26953:0.4658421 27005:0.4658421 27006:0.4658421 #
0.36708362703105973379180682059086 2967:0.35229588 22544:0.45336077 22545:0.43049034 28950:0.49245799 28951:0.49245799 #
-0.19580967141864893954483761717711 1485:0.39577237 1885:0.54798836 5056:0.37370145 7550:0.31201756 8284:0.55323172 #
-0.96535922834899401401287377666449 326:0.20235749 1885:0.34880102 2198:0.2429136 5587:0.39199954 5699:0.25926739 6648:0.61565548 7179:0.23337924 10506:0.35213849 #
0.11372579684162653634871276153717 10:0.027393116 68:0.038151816 80:0.055205844 87:0.26672578 88:0.097414829 110:0.05534799 148:0.046192519 219:0.051643502 340:0.067121886 582:0.18591654 964:0.089431278 2127:0.20460288 2142:0.082543992 2207:0.10473217 2465:0.10230144 2467:0.170443 2566:0.091699459 2600:0.068612851 2902:0.097414829 2915:0.10609179 3130:0.11297908 3225:0.12963958 3389:0.096586071 4875:0.092958272 6145:0.11786569 6247:0.08564093 6435:0.098286107 7468:0.10918873 8245:0.12475298 9774:0.12963958 10537:0.12963958 10725:0.28379184 12589:0.08151421 13057:0.13652687 26516:0.13652687 27103:0.12475298 28791:0.12963958 31140:0.14830077 31141:0.29660153 31142:0.13652687 31143:0.29660153 31144:0.14830077 31145:0.13652687 31146:0.14830077 31147:0.13652687 31148:0.14830077 31149:0.14830077 31150:0.14830077 31151:0.14830077 31152:0.14830077 31153:0.14830077 #
0.77721708685767898483476301407791 84:0.25172916 377:0.21474423 728:0.25915584 992:0.22507969 1230:0.18709248 1403:0.24105185 1533:0.21712001 3092:0.29773414 3099:0.31425443 4496:0.32983902 6561:0.278954 9916:0.30806962 36812:0.40438426 #
1.2613989151669682264866878540488 19:0.49097279 110:0.31247392 4855:0.60729849 12921:0.54082751 #
1.0174952923461650922121179974056 10:0.11087315 19:0.35199007 110:0.22402 1419:0.38467601 19008:0.55259007 19009:0.6002447 #
0.51902416712100862827838909652201 52:0.24578188 90:0.2248105 964:0.20987429 1187:0.41729528 1422:0.25244108 2734:0.19903432 4754:0.2286098 7981:0.26513544 8557:0.22134201 18732:0.27045834 20661:0.28387097 21061:0.34802717 21062:0.34802717 #
1.3068656292691862574883998604491 148:0.065110102 963:0.39037383 1230:0.096712418 1700:0.30885062 2083:0.11489737 4933:0.1827319 9919:0.19243979 9925:0.33227229 10037:0.1398325 19277:0.30781129 23652:0.41807109 23653:0.20903555 23654:0.20903555 23655:0.20903555 23656:0.19243979 23657:0.20903555 23658:0.20903555 #
-2 21:0.3646245 627:0.23870306 2969:0.47712255 3092:0.76316702 #
0.015058244132142288573827926256854 693:0.062526934 942:0.13251552 3692:0.13251552 6953:0.14280382 7205:0.14280382 9215:0.16105594 12506:0.13160166 12513:0.1197765 14266:0.2418059 16631:0.14750518 16678:0.17243679 20794:0.17243679 22038:0.16802199 24352:0.19462422 27297:0.19462422 29708:0.19462422 36321:0.21140833 36322:0.21140833 36323:0.21140833 36324:0.21140833 36325:0.21140833 36326:0.21140833 36327:0.21140833 36328:0.21140833 36329:0.42281666 36330:0.21140833 #
-0.32039849845698037400509861072351 146:0.26278773 928:0.50137359 3016:0.53067052 3017:0.63083744 #
-1.6642675298991762566913621412823 21:0.1876114 110:0.19904763 340:0.24139002 1523:0.46622202 4855:0.3868525 5675:0.38153723 8157:0.40630594 8158:0.43501714 #
2 1:0.13613977 87:0.23385447 619:0.18952782 639:0.35910389 1885:0.38637552 1923:0.24119525 2851:0.21103165 2853:0.2352293 3846:0.29190424 3847:0.25196996 4152:0.28293863 4307:0.2609356 5056:0.26348934 9363:0.29716659 #
1.9553965009482177084265686062281 88:0.23697144 1885:0.35733747 4457:0.26167437 5672:0.25477162 12485:0.56070125 13161:0.60694849 #
0.84488215168898506135519710369408 381:0.15676229 693:0.094915755 798:0.18720925 1885:0.31787583 3275:0.17041999 13316:0.20410046 16108:0.64183486 16109:0.29543915 16110:0.32091743 16111:0.28053531 16112:0.28053531 #
2 15:0.04787378 47:0.39117149 68:0.075217873 378:0.099521875 1265:0.20916431 1885:0.28960991 1995:0.21879846 2000:0.26916832 3294:0.26916832 10716:0.23237704 17563:0.2459556 23475:0.26916832 28709:0.25558975 36537:0.29238105 36538:0.29238105 36539:0.29238105 #
-2 89:0.068454087 148:0.087299004 376:0.064688958 549:0.062007573 861:0.063426659 991:0.075525455 1132:0.090522073 1230:0.1296711 1231:0.075814679 1418:0.083069496 1601:0.075525455 1995:0.41947502 2183:0.091268763 2467:0.080529846 2853:0.084507868 3981:0.13211815 4066:0.17446983 4180:0.19126716 4906:0.11788501 4996:0.10675929 6042:0.081749491 7038:0.37864196 7487:0.095633581 10716:0.44550753 10717:0.42040929 10718:0.1089026 10719:0.11137688 10720:0.09777689 10721:0.1225026 10722:0.10486875 10723:0.095633581 10724:0.10486875 10725:0.067042097 #
-0.66205751569317905502742860335275 46:0.45013118 47:0.37886378 48:0.29657495 49:0.49509594 50:0.56636333 #
-2 1:0.056516454 87:0.097081296 110:0.06043572 148:0.050438654 306:0.072528526 340:0.21987572 370:0.30669206 455:0.098849066 482:0.083946191 619:0.078679733 727:0.10732082 964:0.097652033 1117:0.086304612 1508:0.10546451 2141:0.12584108 3197:0.10298783 3565:0.12584108 3681:0.20755443 3981:0.30533504 4256:0.13208182 4307:0.10832363 4628:0.18184206 5646:0.11435942 5672:0.22871885 6797:0.12117982 7645:0.13208182 7646:0.12584108 7647:0.11584402 7648:0.1415564 7649:0.096527599 7650:0.1415564 7651:0.32386592 7652:0.13622059 7653:0.12336441 7654:0.20755443 7655:0.26416364 7656:0.2234105 7657:0.16193296 7658:0.16193296 #
-1.6048415729535201457167659100378 68:0.095831439 110:0.13902555 148:0.11602844 219:0.12972045 386:0.16548908 861:0.16859975 993:0.38007578 1878:0.22739112 2247:0.21844307 3681:0.23872776 3846:0.27876049 3847:0.24062437 4452:0.23691189 5159:0.62672019 #
-0.97508420038753684799814891448477 1133:0.23330683 1885:0.33863539 2352:0.21429534 4452:0.21742965 4457:0.24797903 5672:0.24143754 6008:0.68375117 6009:0.22657754 6010:0.31473342 #
2 21:0.3822687 132:0.38870168 627:0.25025389 3092:0.80009669 #
2 20:0.56289452 21:0.4663758 627:0.30531496 34756:0.61026722 #
1.1168055168836048540725869315793 21:0.13072032 91:0.067273997 102:0.071181469 134:0.094366051 137:0.073837571 362:0.078200072 508:0.074261114 654:0.085447527 674:0.083671749 1013:0.067273997 1111:0.096260548 1112:0.27808493 1149:0.087477796 1418:0.22027889 1533:0.13301381 1546:0.091200151 1700:0.12201079 1810:0.076094337 2082:0.28071824 2100:0.08642637 2193:0.07877925 2198:0.25634259 2578:0.077108175 2587:0.079383068 2609:0.089847915 2851:0.13402733 2916:0.094366051 2928:0.088613421 3193:0.11403441 4719:0.092694975 5377:0.096260548 5698:0.089847915 5702:0.077643618 6142:0.088613421 6309:0.087477796 6626:0.21656355 6918:0.10828178 7485:0.091200151 8258:0.088613421 8885:0.1824003 8886:0.10103433 9225:0.091200151 9273:0.10103433 9392:0.10828178 9404:0.079383068 9730:0.10828178 10252:0.098447599 10464:0.10420023 11452:0.077643618 11562:0.098447599 12606:0.098447599 13456:0.096260548 14901:0.12386858 14902:0.12386858 14903:0.12386858 14904:0.12386858 14905:0.11403441 14906:0.12386858 14907:0.12386858 14908:0.10420023 14909:0.11403441 14910:0.12386858 14911:0.12386858 14912:0.12386858 14913:0.10828178 14914:0.12386858 14915:0.10420023 14916:0.12386858 14917:0.12386858 #
0.3924626448886234797441829869058 110:0.24255466 3092:0.478504 4649:0.36654145 17033:0.50505465 21704:0.56812698 #
1.9433324412194357133643052293337 129:0.27666834 174:0.50339711 734:0.26080573 1196:0.28015187 1508:0.29701164 13264:0.34742174 18127:0.37197194 26512:0.41983354 #
-0.44924270959718587414855051065388 15:0.072243869 31:0.14634721 10367:0.44121727 10368:0.44121727 10369:0.44121727 10370:0.44121727 10371:0.44121727 #
-0.44924270959718587414855051065388 15:0.072243869 31:0.14634721 9655:0.44121727 9656:0.44121727 9657:0.44121727 9658:0.44121727 9659:0.44121727 #
-0.44984067892687040757238037258503 15:0.072243869 31:0.14634721 11205:0.44121727 11206:0.44121727 11207:0.44121727 11208:0.44121727 11209:0.44121727 #
0.42058054053056470600324701081263 89:0.15007304 148:0.095693544 289:0.15215583 619:0.14927326 1197:0.21978232 1230:0.28428012 1231:0.16620979 1538:0.22619802 2352:0.19257461 3050:0.18526801 3297:0.4193182 3495:0.2584413 3981:0.14482242 4649:0.17327118 24404:0.2584413 30127:0.30722347 30128:0.30722347 30129:0.30722347 #
0.2698466689408413055062396779249 21:0.036299348 31:0.034227096 68:0.026546665 88:0.067782842 89:0.15121946 219:0.0359344 306:0.04621806 340:0.046704516 376:0.095268033 505:0.04388969 549:0.045659564 627:0.047527056 992:0.057435472 1096:0.07382042 1097:0.072874367 1144:0.066656351 1150:0.071183026 1561:0.067782842 1586:0.07199847 1626:0.077220596 1639:0.065145455 1700:0.050821234 1815:0.090205364 2137:0.066130966 3681:0.26452386 3704:0.068389095 3962:0.054221418 3981:0.048642911 4177:0.062603004 4181:0.067782842 4256:0.084167793 4746:0.1069877 4927:0.16402578 5066:0.077220596 5294:0.094997652 5355:0.061511222 5672:0.072874367 7279:0.082012892 7907:0.084167793 8492:0.2761125 9360:0.084167793 9695:0.075975321 9916:0.078612708 9920:0.084167793 11402:0.059590373 11695:0.08680518 11714:0.090205364 12450:0.090205364 12552:0.07382042 14013:0.08680518 14291:0.082012892 14462:0.094997652 14590:0.082012892 14732:0.075975321 15583:0.078612708 15597:0.08680518 17573:0.077220596 18735:0.080190942 18928:0.090205364 19909:0.084167793 20079:0.094997652 20663:0.2316618 22285:0.090205364 22612:0.084167793 22814:0.08680518 22815:0.094997652 23480:0.090205364 23492:0.15722542 24733:0.090205364 25447:0.090205364 26414:0.094997652 30098:0.18041073 32493:0.094997652 32859:0.094997652 35080:0.10319012 35081:0.10319012 35082:0.10319012 35083:0.10319012 35084:0.10319012 35085:0.10319012 35086:0.10319012 35087:0.094997652 35088:0.20638023 35089:0.094997652 35090:0.10319012 35091:0.10319012 35092:0.10319012 35093:0.10319012 35094:0.10319012 35095:0.08680518 35096:0.10319012 35097:0.10319012 35098:0.10319012 35099:0.10319012 35100:0.10319012 35101:0.10319012 35102:0.20638023 #
0.30265201308188838247303920070408 110:0.11735322 582:0.39419505 621:0.22494425 861:0.14231718 992:0.17501634 2153:0.25647458 3981:0.1482238 4007:0.24435641 4649:0.17734072 6454:0.24435641 7973:0.18851106 14486:0.24435641 38353:0.31443909 38354:0.31443909 38355:0.31443909 38356:0.31443909 #
0.061690685925521654420222716908029 3:0.1200273 110:0.1601008 306:0.19213594 417:0.24417338 766:0.27938697 2551:0.3749983 2585:0.25290367 4912:0.28976956 6488:0.27710125 9347:0.26703876 23174:0.34094086 26315:0.34094086 26316:0.34094086 #
0.10707882995065562403702585925203 10:0.10285354 620:0.27577537 2508:0.35685188 4920:0.44255292 7656:0.76822704 #
-2 31:0.032511368 102:0.056326024 165:0.052627038 289:0.097088441 340:0.044363324 354:0.085400604 377:0.15615353 501:0.052051179 549:0.043370754 618:0.25534913 619:0.047624554 622:0.059832979 734:0.11211096 924:0.050482102 940:0.064385042 989:0.059832979 1070:0.050646 1105:0.25326008 1156:0.24406335 1226:0.063315019 1281:0.066209607 1581:0.076171152 1700:0.096547358 1792:0.12663004 1814:0.24736148 2128:0.082453832 2142:0.054556359 2196:0.12375972 2450:0.12563194 2582:0.060607545 2663:0.082453832 2734:0.056055482 3162:0.066890225 3188:0.12767456 3297:0.066890225 3330:0.070119962 3562:0.072166845 3981:0.046204548 4058:0.064960904 4165:0.074672028 4568:0.098017432 4569:0.077901766 4570:0.090235628 4571:0.098017432 4572:0.085683569 4573:0.098017432 4574:0.090235628 4575:0.098017432 4576:0.098017432 4577:0.085683569 4578:0.073349707 4579:0.079948649 4580:0.49008715 4581:0.076171152 4582:0.079948649 4583:0.17136714 4584:0.077901766 4585:0.098017432 4586:0.082453832 4587:0.071096823 4588:0.074672028 4589:0.085683569 4590:0.085683569 4591:0.085683569 4592:0.073349707 4593:0.098017432 4594:0.082453832 4595:0.071096823 4596:0.098017432 4597:0.085683569 4598:0.079948649 4599:0.074672028 4600:0.090235628 4601:0.076171152 4602:0.098017432 4603:0.098017432 #
-1.7997767641867614685224907589145 174:0.31752831 734:0.3290174 5468:0.42358297 7450:0.52963763 7451:0.57531285 #
-2 10:0.025627486 68:0.14277093 346:0.073677555 378:0.094451159 917:0.20430188 1227:0.11316595 1403:0.16540712 2448:0.11671199 2585:0.081795238 3270:0.11316595 3271:0.12128364 3272:0.138742 3273:0.2939449 3274:0.416226 3275:0.29471022 3276:0.30190903 3277:0.138742 3278:0.11671199 3279:0.10382526 3280:0.11316595 3281:0.127727 3282:0.127727 3283:0.084692568 3284:0.10569698 3285:0.10781897 3286:0.10382526 3287:0.096803956 3288:0.127727 3289:0.138742 3290:0.138742 3291:0.138742 3292:0.127727 3293:0.12128364 3294:0.127727 3295:0.138742 3296:0.138742 3297:0.094681971 3298:0.138742 3299:0.11026862 3300:0.138742 3301:0.138742 #
-1.0763626666969769996029526737402 132:0.3589218 133:0.19111118 143:0.12567817 144:0.13469054 354:0.10928463 484:0.14278899 1112:0.1877269 1652:0.20461585 1759:0.16338138 1984:0.43858695 3287:0.17503166 3664:0.181961 5146:0.21929348 5147:0.21102746 5148:0.20461585 5149:0.19937718 5150:0.17716102 5151:0.23094375 5152:0.21929348 5153:0.23094375 5154:0.21929348 #
1.9233723506922209001146484297351 1:0.075829431 3:0.060791541 8:0.37894264 21:0.076429121 71:0.12951331 286:0.11622231 992:0.12093172 1212:0.076256298 1560:0.13262808 1561:0.14271836 2247:0.12740904 2450:0.13924028 2509:0.14534032 4058:0.14399482 4912:0.14676276 6830:0.12145565 7236:0.17721725 11771:0.068670265 35184:0.18992949 36764:0.2172692 36765:0.2172692 36766:0.43453839 36767:0.2172692 36768:0.2172692 36769:0.2172692 36770:0.2172692 36771:0.2172692 36772:0.2172692 #
2 21:0.38862953 102:0.15871607 326:0.15871607 403:0.17436573 993:0.28180528 1135:0.17565712 1539:0.168598 2146:0.20668557 2194:0.32223973 2578:0.17193107 4628:0.15507585 6229:0.20668557 13018:0.18656613 23050:0.25426692 26648:0.24144006 32706:0.27619454 32707:0.27619454 32708:0.27619454 #
2 8:0.26581094 10:0.065685928 31:0.35385677 68:0.091484211 169:0.14409564 990:0.22136736 4066:0.22136736 5901:0.31086263 9759:0.29914504 11651:0.32737768 30338:0.35561028 30339:0.35561028 30340:0.35561028 #
-1.7507854474095227992336276656715 1:0.061636478 10:0.032620922 21:0.12424784 113:0.11929325 137:0.10527238 219:0.18449801 240:0.28553656 377:0.28134984 945:0.14035961 1007:0.12471964 2183:0.11501891 2194:0.20604505 2414:0.12809879 2509:0.11813705 2578:0.21987073 3197:0.11231787 6139:0.14404759 6617:0.52980912 6618:0.15438049 6619:0.17660303 6620:0.15438049 6621:0.17660303 6622:0.17660303 6623:0.17660303 6624:0.16258217 6625:0.1485613 6626:0.15438049 6627:0.17660303 #
0.14842049003099308523978550056199 15:0.057024475 576:0.16703528 7440:0.27679408 11768:0.14316635 12038:0.16040415 12095:0.17879483 12154:0.18629625 20809:0.30444372 21359:0.56813377 23091:0.34826738 23092:0.34826738 23093:0.34826738 #
-0.91891043028783991886143667215947 3:0.15092978 344:0.34569785 779:0.26493546 1717:0.30703875 4536:0.42872018 4838:0.18619841 4839:0.53942358 4840:0.42872018 #
-1.0008509427029033123091039669816 3:0.25104335 261:0.67142701 954:0.69725388 #
-0.7468101174818690957124545093393 1630:0.23055565 1700:0.16460557 1885:0.33105615 2205:0.23603377 2465:0.23055565 2664:0.23055565 5699:0.24607746 5893:0.29216734 6941:0.33422384 6942:0.28115445 6943:0.33422384 6944:0.2597315 6945:0.25461975 6946:0.2597315 #
2 15:0.064831376 924:0.20392518 1930:0.24818833 3681:0.25374848 7450:0.3645117 9441:0.31468838 11231:0.3645117 12264:0.30164167 13174:0.3461234 22750:0.3645117 22751:0.3461234 #
1.03150913352697704006288859091 22:0.27115622 1385:0.74540639 5675:0.30500522 22545:0.37270319 24312:0.37270319 #
0.20755535143635367445469341873832 863:0.20883867 964:0.19651252 1196:0.20018676 2205:0.23013404 2450:0.20883867 2521:0.22479287 2854:0.20572647 5140:0.24385925 7038:0.22012119 7633:0.20725015 9366:0.27412692 9897:0.45473596 12811:0.14278226 12812:0.1456548 13290:0.2399267 13291:0.28486454 31909:0.27412692 #
2 15:0.043161664 48:0.13803494 68:0.067814335 98:0.1780604 378:0.089726143 879:0.19408147 1721:0.17470221 1827:0.1780604 2121:0.22174671 4659:0.23043258 6527:0.24267465 14102:0.26360258 14103:0.26360258 14104:0.26360258 14105:0.24267465 14106:0.26360258 14107:0.24267465 14108:0.52720517 #
1.2011374713278999415422276797472 31:0.11316048 111:0.22219481 340:0.15441291 346:0.18117158 1621:0.25118706 1636:0.25118706 2579:0.22219481 4501:0.27827272 4743:0.25530416 7646:0.26512459 7981:0.25990668 10337:0.16620563 27031:0.28699237 27032:0.28699237 36452:0.34116369 36453:0.34116369 #
-1.6805039811041875275066104222788 10:0.057939801 68:0.080695771 141:0.1994939 169:0.12710291 619:0.15240759 990:0.19526222 1145:0.17938815 2284:0.57754219 5321:0.28877109 6650:0.23094755 8452:0.3136743 8453:0.27420363 8454:0.3136743 8455:0.3136743 #
0.62447988854923963675247478022357 71:0.13892014 84:0.14507355 350:0.14316608 372:0.1715866 627:0.10733756 653:0.1900889 1533:0.12512802 1870:0.21454762 2272:0.20372447 6009:0.15445347 6642:0.12862557 7369:0.42909524 9031:0.18522216 10722:0.174399 12421:0.3291665 12845:0.16671985 14542:0.20372447 17313:0.20372447 20434:0.20372447 20617:0.21454762 20618:0.23304991 20619:0.23304991 20620:0.23304991 #
-1.0733523926648040891507207561517 1:0.077955522 10:0.041257724 21:0.07857202 25:0.12713657 78:0.13390832 79:0.12130909 80:0.16629489 81:0.18789479 82:0.1735779 83:0.1735779 84:0.27808431 85:0.14941534 86:0.17016172 87:0.13390832 88:0.14671986 89:0.21821547 90:0.14428151 91:0.12130909 92:0.18789479 93:0.18218602 94:0.20562787 95:0.14000769 96:0.22336094 97:0.20562787 98:0.15087765 99:0.19525468 100:0.18218602 101:0.1735779 102:0.12835507 103:0.44672188 #
-1.4939342172501086647429247022956 1:0.1107151 10:0.058595635 964:0.19129926 1196:0.19487603 3962:0.16668633 8398:0.63444972 8399:0.27730739 8400:0.63444972 #
-2 3:0.089397222 346:0.16967049 542:0.22563982 619:0.15524109 1909:0.16006906 3221:0.20638707 4714:0.21804112 7221:0.27930152 7647:0.22856906 9441:0.50787055 9442:0.31950602 9443:0.27930152 9444:0.31950602 9445:0.31950602 #
0.93623739109228099053439109411556 8:0.31060907 110:0.15508652 240:0.22395352 381:0.20298497 16764:0.32292584 18097:0.36325353 20979:0.33894047 21179:0.30141333 25021:0.33026275 26027:0.34956113 26028:0.33894047 #
0.47501688086447152459257381451607 8:0.28729826 31:0.063743576 156:0.075773999 339:0.10357305 399:0.10651233 676:0.091254897 693:0.11367881 695:0.10280064 724:0.098661259 725:0.056558993 732:0.25032577 735:0.10888147 798:0.22421698 820:0.13408792 1587:0.41244316 1800:0.13408792 3692:0.12046174 6268:0.14381346 6940:0.094648033 8666:0.24632089 8696:0.10133264 11852:0.061482403 17319:0.17692095 20863:0.15273848 26755:0.16166352 32752:0.17692095 33136:0.16166352 33137:0.19217837 33138:0.17692095 33139:0.19217837 33140:0.19217837 33141:0.19217837 33142:0.19217837 33143:0.19217837 #
1.1746427837778630198783957894193 8:0.14908274 10:0.11052185 3197:0.3805404 15598:0.52305132 18619:0.52305132 18620:0.52305132 #
0.84904651709108425183814006231842 1:0.13721786 8:0.19591978 3197:0.25004703 12754:0.21699484 15284:0.36194766 15630:0.36194766 38268:0.36194766 38269:0.36194766 38884:0.39316154 38885:0.39316154 #
-0.17507244282335748808421271860425 8:0.22198427 15:0.072939612 3206:0.38941187 9939:0.44546637 9940:0.44546637 9941:0.44546637 9942:0.44546637 #
-1.6834751698938068553701441487647 1:0.086859912 68:0.06402529 245:0.11462584 378:0.084712811 379:0.22911552 380:0.21755746 381:0.12157045 489:0.15492411 505:0.10585324 2242:0.20935689 3188:0.16208799 3189:0.22911552 3190:0.13464244 3191:0.30577427 3192:0.17575854 3193:0.22911552 3194:0.22911552 3195:0.24887411 3196:0.41871378 3197:0.15828159 3198:0.24887411 3199:0.24887411 3200:0.24887411 #
-1.1859539107776861932563861046219 15:0.077692501 399:0.26298198 400:0.4147867 401:0.4147867 402:0.17595802 403:0.59911007 5776:0.43682283 #
-0.62325352487990892669245113211218 15:0.077262953 1586:0.32923648 1587:0.33756793 3297:0.32201949 5200:0.47187045 5201:0.47187045 5202:0.47187045 #
-0.65022762024135383196465909350081 15:0.071776934 1587:0.31359908 2783:0.43836552 2784:0.43836552 2785:0.43836552 2786:0.35755613 2787:0.43836552 #
-1.2795278344614686716340656857938 245:0.22536799 693:0.14472197 1545:0.36026648 4421:0.29869419 7488:0.39911428 9925:0.38889599 10166:0.39911428 10167:0.48931605 #
0.91575486190037747036285509238951 111:0.23450615 148:0.11215313 377:0.19120991 683:0.19956231 1097:0.25428447 1107:0.22569804 1276:0.22899912 2194:0.21004732 3491:0.26945001 4195:0.21586561 6803:0.302894 8829:0.302894 12907:0.286172 38913:0.36006686 38914:0.36006686 #
0.51774212071960989955954346442013 505:0.077016279 656:0.10733679 665:0.11793134 667:0.10509244 991:0.097588897 1544:0.11271907 2230:0.12490979 3136:0.3333979 3330:0.12953779 3642:0.11604458 4451:0.18712421 4628:0.10166869 5355:0.215876 7550:0.10212453 8453:0.1582896 8991:0.1407166 9340:0.35089952 9355:0.1407166 9386:0.14769505 10338:0.3046461 11971:0.28782737 18556:0.13550434 21085:0.16669895 22395:0.1582896 32636:0.16669895 33352:0.16669895 35540:0.18107484 35541:0.18107484 35542:0.18107484 35543:0.18107484 35544:0.18107484 #
0.4105987818208183814938649902615 3:0.052192401 19:0.10938667 170:0.10338504 240:0.10053206 376:0.086107582 1117:0.09941709 1792:0.12049408 1957:0.16306342 1983:0.16306342 2103:0.10667855 2851:0.10091704 3487:0.12362634 4024:0.11386745 4855:0.13530354 4858:0.25200549 4911:0.14496043 5912:0.11534152 6494:0.15691693 7249:0.14210747 8048:0.14825396 8157:0.14210747 12397:0.14825396 20907:0.16306342 30914:0.16306342 32694:0.17172639 34840:0.18653584 34841:0.55960751 34842:0.18653584 34843:0.18653584 34844:0.18653584 34845:0.18653584 34846:0.18653584 #
0.19099174569237023502132899466233 340:0.37610722 376:0.3835924 12381:0.52461046 15836:0.66044229 #
1.1875314967010639488620427073329 10:0.063788727 340:0.15630277 994:0.24704966 1656:0.25842881 7647:0.24704966 11723:0.22684415 17365:0.26836947 19323:0.29050487 26151:0.2816785 26152:0.30188403 26154:0.63584411 #
-2 10:0.046620894 137:0.15045229 484:0.14366329 924:0.51996809 1562:0.18583049 4451:0.13041405 7247:0.2123196 7248:0.25239605 7249:0.5768441 7250:0.25239605 7251:0.25239605 7252:0.25239605 #
-2 19:0.25091204 68:0.11007565 817:0.22888154 1270:0.21191107 1601:0.23060128 2077:0.22640997 2082:0.24242027 2083:0.23518486 5087:0.42787746 5088:0.24470013 5089:0.42787746 5090:0.42787746 #
-1.0555883516787289977401087526232 15:0.10497458 110:0.23927322 683:0.3553293 8323:0.40774283 9909:0.59021521 9910:0.53931582 #
-0.89053846090240640354096512965043 205:0.34811169 1392:0.4486005 3241:0.35021088 6368:0.47084761 6369:0.57726145 #
-1.7082393669316444650974062824389 148:0.14977874 693:0.14222205 2851:0.26015019 10206:0.4808636 10207:0.44268689 10208:0.4808636 10209:0.4808636 #
1.6073323369100742663562186862691 245:0.22530214 354:0.21310329 4421:0.2986069 4452:0.31110945 19867:0.48917305 19868:0.48917305 19869:0.48917305 #
0.96863597928897515743074109195732 1:0.13505656 3:0.10827322 98:0.26139286 245:0.1782292 339:0.20855391 484:0.22026186 508:0.23199379 941:0.21016584 1538:0.28491181 2928:0.27683082 3423:0.2699984 35924:0.38696888 35925:0.38696888 35926:0.38696888 #
1.0819875488516579320474875203217 95:0.44759181 108:0.10687166 141:0.090827666 169:0.057868741 245:0.06577643 261:0.10687166 403:0.090159915 728:0.091523841 856:0.19293684 963:0.088901021 993:0.072857037 1108:0.097460091 1141:0.24027301 1561:0.093810007 1605:0.11098254 2483:0.17780204 3261:0.097460091 3487:0.094649039 3600:0.091523841 4404:0.20171313 5133:0.24027301 5147:0.12013651 7050:0.22196509 7654:0.091523841 8557:0.090827666 10252:0.11350408 11226:0.21029642 12465:0.1087983 13459:0.10687166 21032:0.12013651 25460:0.12013651 31909:0.12013651 33935:0.14281291 33936:0.14281291 33937:0.14281291 33938:0.14281291 33939:0.14281291 33940:0.14281291 33941:0.14281291 33942:0.14281291 33943:0.14281291 33944:0.14281291 33945:0.14281291 33946:0.14281291 #
1.4795431785286556891634290877846 110:0.20789434 245:0.25655887 4421:0.34003338 5457:0.39338782 16899:0.55703723 16900:0.55703723 #
0.55783145982883630686899323336547 148:0.13490646 1416:0.31416035 1601:0.23342469 4180:0.29557237 9925:0.34422982 12393:0.33658263 13527:0.29877403 13528:0.29877403 13803:0.3786158 27681:0.43311626 #
0.016499319697503449233533245887884 68:0.13165905 148:0.23911035 378:0.17420003 861:0.23163258 1276:0.32548392 12415:0.16808562 12819:0.19494113 13531:0.18305738 14097:0.18305738 14099:0.38988227 14100:0.36611477 25297:0.37680206 27761:0.4174329 #
-0.57429089022428025934630113624735 21:0.16971733 110:0.18006277 245:0.22221239 991:0.26002061 4421:0.29451188 6308:0.34995511 9925:0.38345066 9926:0.48246461 9927:0.48246461 #
-0.39930187870963479435104659387434 156:0.12376074 245:0.14456727 1146:0.22767432 1229:0.23912326 1539:0.19160397 4421:0.19160397 6194:0.48784783 6487:0.28896281 6488:0.20275456 6489:0.26404303 6491:0.28896281 6492:0.28896281 6493:0.28896281 10971:0.31388256 #
-0.39930283471589017585401393262146 156:0.12376073 245:0.14456725 1146:0.22767431 1229:0.23912324 1539:0.19160396 4421:0.19160396 6194:0.48784781 6487:0.28896278 6488:0.20275453 6489:0.264043 6490:0.31388253 6491:0.28896278 6492:0.28896278 6493:0.28896278 #
-1.5102331975878080516650925346767 80:0.075062349 148:0.18842129 245:0.27861503 963:0.25104395 1013:0.10951322 1230:0.18658322 1231:0.10908944 1281:0.27241322 1533:0.10826451 2142:0.11223351 2851:0.10908944 3161:0.13363777 4024:0.1230886 6461:0.144251 7808:0.13620661 8902:0.20164177 8903:0.52880549 8904:0.35253701 8905:0.20164177 8906:0.16962428 8907:0.14846186 8908:0.20164177 #
0.88922081268380104290827148361132 1270:0.21471463 1507:0.25559214 1601:0.23365211 2077:0.22940534 2082:0.24562746 2083:0.23829633 3276:0.62893283 17574:0.35361871 21295:0.37898466 #
0.70605184728463621368632630037609 618:0.25303778 619:0.18877389 940:0.255209 1270:0.19241926 1847:0.23159572 1974:0.27437907 2077:0.20558453 2082:0.22012219 2083:0.2135523 2509:0.25989759 4581:0.30192667 4584:0.30878648 25780:0.35767537 25781:0.38852081 #
-0.44873433751543567726827177466475 15:0.072243869 31:0.14634721 11357:0.44121727 11358:0.44121727 11359:0.44121727 11360:0.44121727 11361:0.44121727 #
0.39629618719177112096119230955082 15:0.035284355 48:0.11284259 102:0.12383387 482:0.1117119 619:0.10470352 683:0.1194343 1011:0.11658318 1109:0.14865243 1371:0.15630776 1403:0.12845469 1906:0.15866023 1922:0.14865243 1933:0.16126077 2851:0.11658318 4024:0.13154399 4066:0.13414453 4095:0.15866023 4177:0.13073467 7975:0.18127637 8369:0.14865243 11643:0.17126857 11723:0.14155179 13529:0.15630776 19656:0.16746378 20446:0.17126857 20683:0.18837702 25135:0.18127637 26674:0.19838482 26675:0.37675405 26676:0.18837702 26677:0.19838482 26678:0.18837702 26679:0.19838482 26680:0.18837702 26681:0.18837702 26682:0.18837702 #
0.15831161721992179081119900274643 15:0.034460865 693:0.062247604 1261:0.13385306 1533:0.11300125 3039:0.30531949 4131:0.14216587 5074:0.095872842 9996:0.11258201 11738:0.1143046 11984:0.10874756 12226:0.13487902 12567:0.16727138 12577:0.10804877 13241:0.11714391 13247:0.30531949 15015:0.12691814 16179:0.13824815 16186:0.16355538 16378:0.18398054 18574:0.17704561 19149:0.15749715 20124:0.15495731 23548:0.18398054 25557:0.19375476 25558:0.19375476 25559:0.21046391 25560:0.21046391 25561:0.21046391 25562:0.21046391 25563:0.21046391 25564:0.21046391 25565:0.21046391 25566:0.21046391 #
-2 1270:0.23849161 2077:0.25480914 2078:0.48154721 2079:0.48154721 2080:0.39277756 2081:0.34007567 2082:0.27282766 2083:0.26468468 #
-2 817:0.1815037 936:0.22919853 1270:0.16804607 2077:0.17954373 2082:0.19223996 2083:0.18650225 7465:0.33930802 7466:0.46310925 7467:0.62473935 7468:0.24982077 #
-2 3:0.098031662 1157:0.37078956 1909:0.17552935 2013:0.18882681 2102:0.27227551 4888:0.55692327 10054:0.30627787 10055:0.2506454 10056:0.35036552 10057:0.35036552 #
-1.5617675525206877740203026405652 3:0.042155344 2083:0.082812831 2183:0.098124795 2184:0.10393122 2188:0.4683331 2189:0.11477897 2190:0.093787931 2578:0.18757586 3258:0.1228897 4735:0.5548076 4736:0.41610569 4737:0.1387019 4738:0.10640067 4739:0.1228897 4740:0.1228897 4741:0.1228897 4742:0.12674044 4743:0.11274641 4744:0.1387019 4745:0.1228897 4746:0.078104027 4747:0.11974342 4748:0.11708327 4749:0.10078494 4750:0.1228897 #
0.59187729710099734603545584832318 10:0.032045934 80:0.064582758 89:0.25424033 91:0.18844776 131:0.12982847 148:0.10807696 636:0.10727494 991:0.18700241 1013:0.094223879 1810:0.10657763 2247:0.10173655 2465:0.2393554 2566:0.10727494 3130:0.13216898 4592:0.12982847 4940:0.12104867 4996:0.13216898 7548:0.28301713 8806:0.13216898 9636:0.14150856 10258:0.13788559 10588:0.12411185 11567:0.15165932 13455:0.11719055 13537:0.15971646 15743:0.13788559 19820:0.14150856 21684:0.17349018 21685:0.15165932 21686:0.17349018 21687:0.17349018 21688:0.17349018 21689:0.17349018 21690:0.15971646 21691:0.15971646 21692:0.17349018 21693:0.15971646 21694:0.34698036 #
0.5947295862126724674823208260932 2510:0.30594987 7480:0.37990621 9909:0.42878869 27312:0.37990621 31134:0.46576685 31135:0.46576685 #
0.39819534989411298209205369857955 80:0.1100742 91:0.16059422 432:0.18667661 560:0.22127834 942:0.18534826 1144:0.19100612 2579:0.19258167 2851:0.15997277 4509:0.25848663 4592:0.22127834 7249:0.22526747 7550:0.16676918 7840:0.23501082 9379:0.21770994 13827:0.18407005 18002:0.24118577 19317:0.21448193 20617:0.27221912 29872:0.27221912 30495:0.29569492 30496:0.27221912 #
0.99007484919321797622870917621185 25:0.14027075 80:0.22934304 88:0.080938578 91:0.066920623 95:0.077235781 111:0.080249988 148:0.076759502 245:0.056751415 326:0.070807569 337:0.093870372 386:0.21896113 505:0.052408084 619:0.059868932 645:0.10365289 1143:0.20235978 1154:0.081662491 1195:0.10050362 1519:0.078365438 2467:0.2124227 2600:0.057008024 3197:0.078365438 3681:0.078966089 3700:0.11343541 3981:0.05808384 4274:0.097930484 4716:0.081662491 4882:0.090721101 5513:0.092208073 6111:0.088147961 6235:0.084087849 6414:0.093870372 6435:0.081662491 8370:0.107713 8886:0.10050362 8903:0.107713 8904:0.32313901 11524:0.097930484 12157:0.18977426 12158:0.18977426 14165:0.092208073 19813:0.10050362 20330:0.11343541 20502:0.10050362 21728:0.089375965 23049:0.10365289 23483:0.24643585 23484:0.22687082 23485:0.107713 23486:0.12321793 23487:0.12321793 23488:0.12321793 23489:0.12321793 23490:0.11343541 23491:0.12321793 23492:0.093870372 23493:0.12321793 23494:0.12321793 23495:0.12321793 23496:0.12321793 23497:0.107713 23498:0.10365289 23499:0.12321793 23500:0.11343541 #
0.83684521338350337238409792917082 79:0.094010904 110:0.064602688 849:0.24155013 992:0.096346118 2467:0.099471331 3046:0.15935543 3704:0.11472046 4145:0.13187023 5468:0.1274461 6620:0.15131652 6642:0.095536761 9715:0.15935543 10187:0.26903534 16735:0.14561284 30189:0.17309803 30190:0.51929408 30191:0.17309803 30192:0.15935543 30193:0.30263305 30194:0.34619606 30195:0.17309803 30196:0.17309803 30197:0.17309803 30198:0.17309803 #
-2 10:0.05115629 80:0.1030962 361:0.16073644 947:0.18037324 9647:0.40781707 11226:0.40781707 11227:0.23297457 11228:0.22011265 11229:0.27694976 11230:0.27694976 11231:0.25496218 11232:0.21098697 11233:0.27694976 11234:0.27694976 11235:0.27694976 #
-0.16372223211009095944490354668233 21:0.16381797 113:0.3145709 1099:0.36189955 1422:0.33779073 1878:0.28427467 5510:0.40709436 6206:0.40709436 9465:0.46569422 #
-2 34:0.31213853 110:0.1724599 148:0.14393219 168:0.27703205 169:0.18724328 992:0.25720048 993:0.23574023 994:0.33057353 995:0.62427706 996:0.3457998 #
0.15990097379718562486949906542577 924:0.3918024 1700:0.37466237 1878:0.46437657 15954:0.70033807 #
0.17112166665482092531291868908738 3:0.094046652 484:0.19132055 619:0.16331497 2134:0.23737505 5088:0.19222645 5528:0.23186581 8323:0.21377113 9324:0.4747501 14589:0.24045663 17246:0.33612311 17247:0.33612311 17248:0.33612311 17249:0.33612311 #
0.34805900357898139629853062615439 3:0.068436205 501:0.12988774 1624:0.16210249 2525:0.19950269 3261:0.16691689 4838:0.084428094 6237:0.21381353 7008:0.17497633 12949:0.19439493 13386:0.22517268 20264:0.19007638 22395:0.21381353 23863:0.22517268 23864:0.24459127 23865:0.22517268 23866:0.22517268 23867:0.24459127 23868:0.24459127 23869:0.48918253 23870:0.24459127 #
0.34181754819372595077808796304453 10:0.044210043 8626:0.16523382 12044:0.11421661 12946:0.12850751 14937:0.20922671 19946:0.18233815 23622:0.22034219 29688:0.22034219 37129:0.23934419 37130:0.23934419 37131:0.23934419 37132:0.23934419 37133:0.23934419 37134:0.23934419 37135:0.23934419 37136:0.23934419 37137:0.23934419 37138:0.44068438 37139:0.23934419 #
0.054103088791060904849672397176619 703:0.10247705 768:0.098532513 11768:0.11644409 11852:0.090622418 11882:0.14191152 11909:0.15834664 11940:0.13799782 11994:0.16048661 11995:0.54459959 12000:0.12293366 12107:0.14884081 12207:0.2054642 12366:0.15324683 12663:0.18297541 12783:0.23828506 13616:0.15766357 13856:0.14542246 15501:0.26077387 15542:0.24761875 21493:0.24761875 25712:0.24761875 34648:0.28326264 #
-2 88:0.37700072 728:0.36781314 1878:0.35034654 1937:0.50171226 1938:0.50171226 2851:0.31050077 #
-0.60066406270935568390001435545855 146:0.24626087 1107:0.3705548 8491:0.5442301 8492:0.39545384 8493:0.59116375 #
-2 10:0.10211173 102:0.31767526 549:0.24460833 1013:0.30023664 1700:0.27226052 2103:0.31614941 2358:0.55281216 2359:0.50892329 #
-2 1:0.010011216 10:0.0052984059 31:0.0095143504 68:0.081173018 69:0.017980088 90:0.018528942 95:0.035960175 108:0.064396679 202:0.068393126 219:0.059933648 289:0.014206314 345:0.15025893 366:0.019376034 378:0.097637467 385:0.03382184 386:0.025486508 457:0.025075028 471:0.020013928 506:0.23675288 664:0.1743843 665:0.074727125 667:0.13318352 669:0.036486134 735:0.032503244 783:0.016820902 815:0.019575214 940:0.05652624 941:0.015578774 994:0.020520387 1070:0.014821393 1079:0.041612521 1097:0.020257408 1123:0.021119401 1126:0.022291249 1132:0.018528942 1143:0.078513838 1145:0.016404461 1149:0.020257408 1534:0.020013928 1561:0.018842081 1624:0.038021207 1639:0.18108948 1700:0.11301713 1829:0.01918824 2099:0.019010603 2136:0.080055714 2139:0.19510269 2190:0.017856093 2192:0.14477912 2204:0.019575214 2205:0.020257408 2206:0.020520387 2213:0.021852534 2230:0.039574508 2315:0.020013928 2414:0.02080626 2504:0.28360373 2530:0.02080626 2566:0.017736608 3191:0.017621318 3347:0.043705069 3660:0.048259709 3693:0.10006964 3981:0.013521616 4016:0.01918824 4087:0.024129855 4181:0.018842081 4406:0.063358203 4412:0.023396721 4601:0.022291249 4716:0.038021207 4719:0.02146556 4739:0.046793442 4742:0.072389558 4878:0.01918824 4887:0.037684161 5088:0.016404461 5534:0.021119401 5578:0.022797707 5863:0.038752068 5966:0.023396721 6461:0.020520387 6740:0.022797707 6785:0.035473216 6942:0.024129855 7363:0.035712186 7484:0.025075028 7808:0.058128104 7963:0.021852534 7973:0.017196795 8390:0.020257408 8492:0.1918824 8557:0.018243067 8717:0.025075028 9031:0.045595415 9273:0.023396721 9313:0.3442139 9314:0.4679344 9315:0.046793442 9316:0.026407175 9317:0.028684493 9318:0.20060022 9319:0.086053476 9320:0.086053476 9321:0.026407175 9322:0.025075028 9323:0.034595788 9324:0.040514816 9325:0.025075028 9326:0.028684493 9327:0.022797707 9328:0.021852534 9329:0.028684493 9330:0.044582497 9331:0.025075028 9332:0.025075028 9333:0.026407175 9334:0.026407175 9335:0.028684493 9336:0.028684493 9337:0.028684493 9338:0.02080626 9339:0.025075028 9340:0.018528942 9341:0.028684493 9342:0.026407175 9343:0.028684493 9344:0.028684493 9345:0.025075028 9346:0.023396721 9347:0.017856093 9348:0.022797707 9349:0.086053476 9350:0.022797707 9351:0.022797707 9352:0.026407175 9353:0.026407175 9354:0.02080626 9355:0.022291249 9356:0.021119401 9357:0.028684493 9358:0.045595415 9359:0.024129855 9360:0.023396721 9361:0.028684493 9362:0.028684493 9363:0.021852534 9364:0.028684493 9365:0.023396721 9366:0.024129855 9367:0.018681781 9368:0.023396721 9369:0.028684493 9370:0.21852535 9371:0.023396721 9372:0.025075028 9373:0.023396721 9374:0.028684493 9375:0.10030011 9376:0.025075028 9377:0.028684493 9378:0.025075028 9379:0.021119401 9380:0.024129855 9381:0.057368986 9382:0.028684493 9383:0.028684493 9384:0.028684493 9385:0.028684493 9386:0.023396721 9387:0.025075028 9388:0.022291249 9389:0.050150055 9390:0.1056287 9391:0.05281435 9392:0.050150055 9393:0.026407175 9394:0.028684493 9395:0.028684493 #
-1.3404384868829601895612313455786 143:0.12675336 144:0.13584283 638:0.22116956 639:0.23291951 640:0.23291951 641:0.23291951 642:0.22116956 643:0.19661576 644:0.19661576 645:0.21283284 646:0.20636638 647:0.25300616 648:0.25300616 649:0.23291951 650:0.20636638 651:0.23291951 652:0.1862797 653:0.20636638 654:0.17452975 655:0.16090955 656:0.14997594 657:0.20108289 658:0.25300616 #
0.92841375226954436783444180036895 10:0.09363579 4628:0.28462493 9647:0.37323147 34761:0.50692517 34762:0.50692517 34763:0.50692517 #
0.39035346078233273958701943229244 68:0.12444369 169:0.19600971 219:0.16845089 4714:0.33011129 6953:0.32675233 25745:0.48372778 25746:0.48372778 25747:0.48372778 #
1.091099136318973261694509346853 68:0.071108773 169:0.11200254 375:0.2148021 543:0.15131444 683:0.15319575 1975:0.164766 7358:0.2148021 11481:0.21968243 15898:0.4832541 25692:0.55281693 25693:0.27640846 25694:0.27640846 25695:0.27640846 #
0.87430633739793661707295768792392 15:0.062461633 417:0.21713412 995:0.25768107 1109:0.26314989 1560:0.23286389 3986:0.27289981 4418:0.26032996 4883:0.25282124 6042:0.22253525 12808:0.33347178 18886:0.3814739 18887:0.35118794 18888:0.35118794 #
-1.8204467730471300956907043655519 10:0.066714935 20:0.15334752 114:0.25200558 148:0.11250019 340:0.32694581 1560:0.22047652 2142:0.20103288 2634:0.24160895 7770:0.24160895 8989:0.31573248 8990:0.27028385 8991:0.28068048 8992:0.33250624 8993:0.33250624 8994:0.33250624 #
-2 1:0.22172663 169:0.25742739 11479:0.47541544 11480:0.63529909 11481:0.50491959 #
-1.9732431029252259779838141184882 87:0.25944895 169:0.17535904 1792:0.27954713 2547:0.27954713 3179:0.31862953 3704:0.286814 11302:0.43276447 11303:0.43276447 11304:0.43276447 #
-0.75311980514586318591341296269093 15:0.07874392 4494:0.48091522 4495:0.48091522 4496:0.3922621 4497:0.38221923 4498:0.48091522 #
0.60863561636362228934871154706343 10:0.0653449 416:0.20531799 432:0.22333647 489:0.22021805 1013:0.38426402 3703:0.22851624 4153:0.23445655 4748:0.2749165 4888:0.28116265 5912:0.21874443 8492:0.23664732 18092:0.30924869 18198:0.26473337 20663:0.26473337 27313:0.32567796 #
0.030696969300552601200848812368349 23:0.14762709 84:0.16719195 146:0.22376578 148:0.083657391 307:0.14420545 620:0.13301797 974:0.158342 1117:0.14314455 1230:0.24852391 1231:0.14530425 1909:0.13455643 2467:0.15434119 2536:0.18739639 2869:0.16101873 4195:0.16101873 4649:0.15147746 4902:0.15920861 7973:0.16101873 8254:0.19213852 9323:0.16196536 10398:0.16294204 12073:0.18142359 13549:0.16294204 15124:0.19213852 15125:0.19213852 15126:0.19213852 15127:0.18967618 15128:0.19213852 15129:0.17349201 15130:0.19481525 35023:0.24725828 35024:0.24725828 #
1.5172544923356785506740607161191 21:0.25330129 110:0.13437089 245:0.16582482 342:0.20895852 482:0.18664333 619:0.17493406 1909:0.18037449 2142:0.2003959 2851:0.19478206 2853:0.21711649 4421:0.21977793 5646:0.25426316 6212:0.28614801 14289:0.26508257 15832:0.31473204 15833:0.36003667 15834:0.36003667 #
0.40068035892572906320197034801822 69:0.1187218 354:0.082511306 963:0.11790307 1108:0.12925436 1150:0.13065444 1878:0.11561739 2103:0.32495397 2137:0.12138152 2152:0.1442914 2204:0.12925436 3210:0.12925436 3299:0.15053235 3705:0.12669918 3821:0.27099058 4628:0.10634447 4888:0.15053235 4889:0.13065444 6944:0.14718822 7762:0.16556939 8060:0.15932846 8903:0.16556939 9323:0.1142173 9849:0.13945055 14602:0.13945055 14668:0.16556939 15166:0.15448761 18689:0.18940255 18690:0.17436551 18691:0.17436551 18692:0.18940255 18693:0.16556939 18694:0.3788051 18695:0.18940255 18696:0.18940255 #
1.0781711821421275931953687177156 3:0.11582327 348:0.23140375 385:0.24404556 1270:0.20501474 1639:0.26133457 2103:0.23673671 5496:0.2719146 18691:0.38108829 31596:0.41395283 31597:0.38108829 31598:0.41395283 #
-1.848864473077150849533722976048 156:0.22152175 432:0.35468814 582:0.35216427 4870:0.51722014 4871:0.40751868 4872:0.51722014 #
-1.5243602516009140401820332044736 3:0.11128051 1847:0.2370775 2734:0.22745155 4158:0.33456585 5340:0.25902709 7760:0.39771694 7761:0.32440081 7762:0.34767091 7763:0.39771694 7764:0.39771694 #
-1.3080475661261750097708045359468 1885:0.29595637 4649:0.33702752 7179:0.19802143 7683:0.59757644 7684:0.48741767 7685:0.27506682 7686:0.29878822 #
-1.6675813363325886484744842164218 416:0.28426123 1532:0.42815253 1533:0.26297224 1534:0.34173498 1535:0.42815253 1536:0.42815253 1537:0.42815253 #
0.60272071823255968237020852029673 2133:0.18759602 3275:0.14277945 4305:0.20894197 11479:0.40240514 15752:0.22617573 22213:0.21930388 25211:0.24752167 32572:0.26886761 32573:0.26886761 32574:0.26886761 32575:0.26886761 32576:0.26886761 32577:0.26886761 32578:0.26886761 32579:0.26886761 #
0.23410317838425395708945586648042 245:0.13948943 698:0.17489465 2579:0.19724664 25350:0.27881315 25351:0.27881315 25353:0.55762631 30535:0.60571522 30536:0.27881315 #
2 1:0.34507623 15:0.08094573 361:0.28691864 779:0.24280387 1761:0.40323037 2136:0.3449297 19036:0.45511398 19037:0.49436238 #
2 3:0.11732753 34:0.28325179 110:0.15649967 340:0.18979105 1878:0.25597191 2525:0.34202889 4065:0.38603771 4067:0.28050649 4070:0.38603771 4875:0.26284492 7363:0.26103228 17712:0.38603771 #
0.33779246571913223995409225608455 10:0.058255851 80:0.23480816 100:0.2572464 148:0.098235793 306:0.14125867 1656:0.23601335 2135:0.26530719 2136:0.22005269 2191:0.20716825 3621:0.25066027 5862:0.19018996 10725:0.15088221 11435:0.21522903 11479:0.23601335 12589:0.17335305 13432:0.27569935 13433:0.31538534 13434:0.31538534 13435:0.31538534 #
-2 3:0.12081824 20:0.18333241 34:0.29167902 3681:0.27672875 4065:0.39752302 4066:0.26879847 4067:0.28885207 4068:0.43180484 4069:0.36324114 4070:0.39752302 #
0.29980843360227882321566994505702 110:0.12778163 1419:0.21942025 5511:0.27211595 10588:0.24493359 12393:0.26607078 15198:0.57603317 16496:0.28801659 20024:0.34238124 20025:0.31519893 20026:0.31519893 #
-1.1083310003509783125963394923019 10:0.087804452 21:0.33443302 110:0.17740953 262:0.24891888 306:0.21290804 993:0.242506 4558:0.33570296 4875:0.29796353 5457:0.33570296 5628:0.37780046 11469:0.47535545 #
-1.5937512045149038186764300917275 1:0.18384729 80:0.065363914 148:0.1093842 727:0.23274218 963:0.43721557 1013:0.095363557 1070:0.090727344 1230:0.16247572 1231:0.094994523 2137:0.11252865 2576:0.10930389 2771:0.11085171 4911:0.13645315 4912:0.23721604 4913:0.29541591 4914:0.30698743 4915:0.30698743 4916:0.17558862 4917:0.17558862 4918:0.17558862 4919:0.17558862 4920:0.13955338 4921:0.14322017 4922:0.17558862 4923:0.16164829 4924:0.15349372 4925:0.14322017 #
0.65189664487928877800726468194625 3:0.15227045 262:0.28497711 306:0.24374978 4852:0.40725431 11710:0.43252841 11711:0.43252841 31453:0.54421514 #
0.95140095103525756936591051271535 10:0.08493042 7684:0.37503606 8850:0.40193835 10716:0.36543423 13529:0.33351249 13530:0.35028362 14064:0.40193835 14065:0.40193835 #
2 15:0.059022341 128:0.25456846 156:0.56851721 3190:0.78006381 #
0.63377569999438376768807756889146 1:0.10314763 549:0.13077155 582:0.18525258 1169:0.18940279 4497:0.23488951 5972:0.22116412 13548:0.22967134 13972:0.24106127 17334:0.22116412 19718:0.2583532 21223:0.2720786 34788:0.2720786 34789:0.2720786 34790:0.29554227 34791:0.29554227 34792:0.29554227 34793:0.29554227 #
1.8395983586570927581504975023563 15:0.036986083 643:0.70216149 3285:0.17554037 5691:0.66524899 9441:0.17952867 #
0.74151003092254963444673876438173 501:0.21208605 947:0.52021867 1190:0.30425623 5088:0.22840185 6528:0.31036451 8066:0.33596373 11100:0.29886833 19726:0.28570855 34775:0.39937866 #
-0.89863535656901971648835569794755 143:0.12562643 144:0.13463509 487:0.14628057 642:0.2192032 643:0.1948677 1545:0.18462354 1721:0.16618866 1844:0.19103251 3050:0.15121633 3210:0.17112443 3218:0.17938702 3285:0.1948677 3839:0.2109406 3896:0.19929512 4779:0.20453162 5580:0.2192032 5586:0.19929512 5691:0.36924708 5692:0.25075677 5693:0.25075677 5694:0.25075677 5695:0.25075677 5696:0.19103251 #
-0.78431479117339508722039909116575 69:0.094362289 468:0.23590572 501:0.23982936 507:0.20484357 706:0.046239704 779:0.036968686 811:0.05035143 2924:0.059822951 2925:0.19739646 2927:0.26319528 2928:0.26923546 2929:0.059822951 2930:0.059822951 2931:0.059822951 5122:0.56986749 5998:0.30108133 5999:0.30108133 6000:0.35893771 #
-2 10:0.031772427 68:0.04425111 84:0.21415174 219:0.059899695 224:0.10500009 376:0.079402 378:0.058549296 398:0.09983106 508:0.10312232 3283:0.10500009 4059:0.14469711 4123:0.10435408 4307:0.11506422 4889:0.23731253 7487:0.11738475 7907:0.28060159 8011:0.15835328 8242:0.17200945 8243:0.56120318 8244:0.31670657 8245:0.14469711 8246:0.17200945 8247:0.17200945 8248:0.11506422 8249:0.1403008 8250:0.17200945 8251:0.17200945 8252:0.17200945 8253:0.17200945 #
-0.68336627317241438461792313319165 23:0.38030377 31:0.22949469 289:0.3426691 5496:0.45448795 5937:0.69189578 #
-0.18223260050326353653993294301472 15:0.0754591 156:0.18170999 5013:0.46085373 5014:0.46085373 5015:0.46085373 5016:0.46085373 5017:0.33427966 #
2 1:0.18734588 20:0.22790626 21:0.18882748 240:0.28929892 627:0.2472335 5880:0.39522001 22634:0.53679013 22635:0.53679013 #
0.20343854179071604870721046154358 262:0.28613189 3703:0.35296395 5480:0.42463335 5817:0.39089966 7329:0.40231046 28310:0.5464204 #
0.81966102400171547692764306702884 110:0.21482651 635:0.34920985 993:0.2936523 1157:0.30458292 2665:0.4065052 13372:0.48421353 22026:0.50318033 #
1.0258710182539403366064334477414 3:0.070850663 384:0.15362293 398:0.14696445 993:0.12918228 1120:0.16782153 1132:0.16356951 1143:0.13862066 8223:0.20125327 22449:0.21301317 24885:0.44271392 24886:0.75966161 #
1.453412776630035541103325158474 20:0.23793603 286:0.29977804 340:0.25364673 650:0.45710534 27119:0.51592106 33960:0.56041336 #
-0.73259232977907529082983728585532 1:0.18227474 240:0.28146809 999:0.43933356 2582:0.32293138 2665:0.36882773 2666:0.42598537 4248:0.52226013 #
-0.57237189162433765865500845393399 1:0.17889413 240:0.27624774 2582:0.31694204 2665:0.36198714 2666:0.41808468 5848:0.4718796 10715:0.51257384 #
-1.1899505747256828858127164494363 1:0.17541493 240:0.27087519 2582:0.31077802 2665:0.35494709 2666:0.40995362 2667:0.50260514 2668:0.50260514 #
-1.0816997011594353672592205839464 20:0.19327702 110:0.16989748 111:0.29648286 166:0.5667581 167:0.31066179 168:0.27291587 169:0.18446121 861:0.20603892 1143:0.24920544 2636:0.33019871 2637:0.32566184 #
2 20:0.0011018997 23:0.0057061114 31:0.092109844 48:0.002718064 68:0.070105396 73:0.0035806235 84:0.0032311685 129:0.0062980689 146:0.1264922 169:0.11147378 170:0.1510341 174:0.011459316 202:0.0041253832 205:0.0031301589 240:0.0055949036 278:0.0034722285 289:0.13753344 307:0.0083607873 378:0.092757486 383:0.0045374781 405:0.0040337364 416:0.0060250917 421:0.0042337785 505:0.0088308947 625:0.0039543486 656:0.0030768819 665:0.0033805815 734:0.0029684866 779:0.0025493561 893:0.0063773682 914:0.22227336 989:0.0063370573 1022:0.19494765 1096:0.0018566443 1197:0.0055699325 1215:0.0038216836 1231:0.0070204115 1264:0.1663609 1270:0.0051414375 1360:0.0037650191 1403:0.18100578 1646:0.0043664435 1707:0.0034400842 1708:0.25087327 1724:0.010320253 1792:0.0067058485 1807:0.0084675569 1819:0.0045374781 1827:0.19108848 1834:0.013888914 1906:0.0038216836 1954:0.0047785384 1958:0.0068801683 2194:0.0030279893 2206:0.0037132886 2394:0.19866094 2395:0.0040337364 2460:0.0045374781 2501:0.43102413 2505:0.0075300382 2506:0.0036216415 2510:0.0034095887 2516:0.23821762 2522:0.23821762 2566:0.0032095467 2871:0.0043664435 2937:0.0045374781 2967:0.0037132886 3221:0.0016764621 3339:0.0019421617 3605:0.0039543486 3621:0.01237615 3704:0.0051601264 3710:0.0098307719 3801:0.25087327 3910:0.0040337364 4013:0.0035806235 4181:0.0051143831 4195:0.0015559321 4246:0.0047785384 4652:0.093631253 4664:0.0045374781 4835:0.0047785384 5028:0.0019421617 5468:0.0038216836 5496:0.0034095887 5889:0.0043664435 5891:0.0090749562 5907:0.0045374781 5912:0.0016047733 5918:0.0041253832 6247:0.0014987469 6571:0.0040337364 6577:0.22923829 6584:0.0036657008 6594:0.0084675569 6601:0.0019421617 6652:0.0045374781 6810:0.0039543486 6817:0.0090541039 7053:0.0043664435 7065:0.0043664435 7072:0.0045374781 7101:0.0035422537 7142:0.0040337364 7150:0.0047785384 7757:0.0047785384 7770:0.0034722285 8006:0.0023892692 8076:0.0017903118 8602:0.0047785384 8888:0.0041253832 9333:0.0023892692 9467:0.0047785384 9819:0.0021832217 11007:0.0047785384 11049:0.0019421617 11440:0.0043664435 11574:0.0045374781 12875:0.0018328504 14105:0.0047785384 14849:0.0018566443 17444:0.21177252 17571:0.0042337785 17889:0.0023892692 20071:0.0047785384 20462:0.0045374781 22287:0.0047785384 22428:0.002268739 22607:0.0071678073 24242:0.0095570767 24646:0.0042337785 24776:0.0045374781 24939:0.0021832217 25158:0.0043664435 25173:0.0047785384 26684:0.0021832217 27256:0.0045374781 27649:0.0023892692 28235:0.0042337785 29338:0.0025953164 29339:0.0051906328 29340:0.0025953164 29341:0.0023892692 29342:0.0025953164 29343:0.002268739 29344:0.0025953164 29345:0.0025953164 29346:0.27250823 29347:0.27250823 29348:0.0051906328 29349:0.0051906328 29350:0.0051906328 29351:0.0095570767 29352:0.0051906328 29353:0.0051906328 29354:0.0051906328 29355:0.0051906328 29356:0.0051906328 29357:0.0051906328 29358:0.0047785384 29359:0.0051906328 29360:0.0051906328 29361:0.0051906328 29362:0.0051906328 29363:0.0051906328 29364:0.0051906328 29365:0.0051906328 29366:0.0051906328 29367:0.0051906328 29368:0.0051906328 29369:0.0047785384 29370:0.0051906328 29371:0.0051906328 29372:0.0051906328 29373:0.0047785384 29374:0.0051906328 29375:0.0051906328 29376:0.0051906328 29377:0.0025953164 29378:0.0051906328 29379:0.0051906328 29380:0.0051906328 29381:0.0045374781 29382:0.0051906328 29383:0.0051906328 29384:0.0025953164 29385:0.0025953164 29386:0.0025953164 #
1.3319203828854759841249233431881 10:0.050063789 68:0.069726437 91:0.14720133 219:0.094383903 378:0.092256084 779:0.13311771 1885:0.13423318 3191:0.333002 3220:0.23692991 4067:0.1813066 6194:0.21062642 7656:0.18696658 16892:0.19659503 18558:0.22799912 26600:0.23692991 27712:0.24951716 33055:0.24951716 38274:0.27103516 38275:0.27103516 38276:0.27103516 38277:0.27103516 38278:0.27103516 #
0.63983841659474371965643513249233 84:0.12157884 386:0.086766466 484:0.11116856 1545:0.1437981 1586:0.13627113 3962:0.1026246 4066:0.12157884 4163:0.15522538 6009:0.1294397 6104:0.15177698 6247:0.22557279 8323:0.12421368 9375:0.17073123 13363:0.17073123 15047:0.17073123 17560:0.15522538 20601:0.19530742 20602:0.17073123 20603:0.58592224 20604:0.17980157 20605:0.19530742 20606:0.19530742 20607:0.19530742 20608:0.19530742 20609:0.15930395 20610:0.19530742 #
0.90935156748835688222953876902466 8:0.037111316 34:0.25152826 68:0.019158915 219:0.025934111 327:0.031323954 665:0.12125795 676:0.088407844 1885:0.0737672 2152:0.028367674 2197:0.12125795 2248:0.1222984 2450:0.11931796 2466:0.030372245 2600:0.017227855 3063:0.021952761 4765:0.045460731 5976:0.032550924 6031:0.032550924 6602:0.027865326 6785:0.1151231 6830:0.020815587 7063:0.078890927 7884:0.048106361 9314:0.30372244 9404:0.023863593 9736:0.030372245 13479:0.29594642 19277:0.027415963 20305:0.030372245 21025:0.032550924 21065:0.13932663 24750:0.16275463 31591:0.034280241 32914:0.1714012 34427:0.68560481 35279:0.1861826 35280:0.1861826 35281:0.037236519 35282:0.074473038 35283:0.074473038 35284:0.037236519 35285:0.037236519 35286:0.037236519 35287:0.037236519 35288:0.037236519 35289:0.037236519 35290:0.074473038 35291:0.074473038 #
0.77477568456820755660174881995772 148:0.075959742 346:0.12950379 507:0.11061206 963:0.15180795 1392:0.18951449 1975:0.29073778 3224:0.1701533 3293:0.21318148 3692:0.15286212 4465:0.19382028 6742:0.19382028 8214:0.22450705 10337:0.11880594 18149:0.32946017 32372:0.24386823 32373:0.48773646 32374:0.24386823 32375:0.24386823 32376:0.24386823 #
-1.1810969152828181272241181432037 31:0.21424887 1707:0.42809024 1708:0.59464985 1709:0.64593166 #
1.5009399849690054917772386033903 15:0.06505435 272:0.28818721 1019:0.30875573 2666:0.32406762 4014:0.32406762 35688:0.39730847 35689:0.39730847 35690:0.39730847 35691:0.36576536 #
-1.6044324978094872680145499543869 8:0.1096097 68:0.12574799 378:0.16637902 505:0.20789957 856:0.033017706 1135:0.031087076 1144:0.063148439 2221:0.48879775 2222:0.24439888 2223:0.48879775 2224:0.035454884 2225:0.044999115 2226:0.042729069 2227:0.048879776 2228:0.032107826 2229:0.048879776 2230:0.16859223 2231:0.42729074 2232:0.34967741 2233:0.048879776 2234:0.038848408 2235:0.048879776 2236:0.048879776 2237:0.048879776 2238:0.048879776 #
-0.52565515850654853657886178552872 8:0.11850975 68:0.12236259 615:0.059628163 616:0.35593593 617:0.40011454 618:0.55759698 619:0.092440955 620:0.51824331 621:0.13610534 622:0.11613794 623:0.1478509 624:0.16631486 625:0.072470531 626:0.062486827 627:0.043813664 #
-1.6838596130107184034585543486173 286:0.28683907 3994:0.40127492 10146:0.5362249 10147:0.42617792 10148:0.5362249 #
0.11436430327077756752274240170664 68:0.22987498 378:0.076037742 386:0.19848287 4746:0.23160911 33087:0.22338802 33088:0.44677603 33089:0.44677603 33090:0.44677603 33091:0.22338802 33092:0.22338802 33093:0.22338802 33094:0.22338802 #
1.4168209427388065435593489382882 15:0.082592428 735:0.28578618 861:0.22830346 1792:0.32583305 3270:0.4114334 8248:0.3374269 22082:0.46437249 22083:0.50441933 #
0.98236634565955849307528069402906 10:0.069367968 68:0.096612379 165:0.20163529 219:0.13077755 339:0.20239662 378:0.12782927 703:0.13586208 861:0.16997369 995:0.25367555 2582:0.23221181 30834:0.3755441 30835:0.3755441 30836:0.3755441 30837:0.3755441 30838:0.3755441 #
0.31153759129961861029656233768037 68:0.042668659 79:0.090078935 85:0.11094944 148:0.10332261 237:0.13181995 378:0.11291106 861:0.15013707 1108:0.11318699 2665:0.35139462 4195:0.099434584 5629:0.13952263 6945:0.12635481 7468:0.12211572 8067:0.13952263 12415:0.21789578 14096:0.14498778 14097:0.23730424 14100:0.11865212 19149:0.12411726 25296:0.52727979 25297:0.48846287 35172:0.16585827 #
0.67991266049204623911350608977955 1:0.14480448 10:0.076637335 286:0.22193903 549:0.1835845 2008:0.28948596 3286:0.31048268 8243:0.33841541 18661:0.38195929 25598:0.36269084 34171:0.38195929 38711:0.41489896 #
0.39840701895468777493647394294385 3:0.081567921 1519:0.18540655 1783:0.20110032 2649:0.19894533 3097:0.23778377 4838:0.30188513 6529:0.23169592 8626:0.10062838 9910:0.2452347 11773:0.31665802 13598:0.14826252 14637:0.2452347 20530:0.29152405 20531:0.29152405 20532:0.29152405 20533:0.29152405 20534:0.29152405 #
-2 10:0.064540014 89:0.17067869 148:0.10883266 549:0.1546054 3874:0.22570148 4451:0.18053976 4938:0.28499603 8258:0.24995933 8259:0.34940651 8260:0.34940651 8261:0.30543953 8262:0.34940651 8263:0.34940651 8264:0.34940651 #
-1.144721026619151871273061260581 1958:0.38573298 3270:0.47472909 4835:0.53581244 4836:0.58202016 #
-2 21:0.060967028 68:0.044586785 219:0.060354076 307:0.093055047 370:0.10941588 378:0.058993433 386:0.076995879 507:0.078610681 833:0.1086373 1519:0.11022624 2100:0.12092594 2133:0.12092594 2191:0.11384553 2450:0.1110711 3050:0.20903085 3063:0.10217729 3275:0.18407363 4587:0.12571329 5113:0.14136508 5587:0.096466474 5880:0.1276053 6785:0.10716617 7063:0.12239707 7214:0.15955451 7487:0.1182752 7649:0.10331196 8796:0.31910902 8797:0.17331427 8798:0.11287699 8799:0.13774578 8800:0.15150556 8801:0.51994282 8802:0.17331427 8803:0.17331427 8804:0.15955451 8805:0.17331427 8806:0.13203497 8807:0.17331427 8808:0.17331427 #
-1.8010953699138081418595902505331 10:0.11606342 110:0.23450696 4195:0.37670171 4196:0.62834376 4197:0.62834376 #
-0.63971686536335781170237169135362 15:0.10650174 1102:0.37750399 3314:0.65044141 3315:0.65044141 #
2 8:0.10224646 68:0.10557057 76:0.12505054 505:0.17454016 615:0.05144529 616:0.30709025 620:0.44712391 626:0.053911656 627:0.037801042 924:0.04227028 4393:0.63757366 6844:0.13808246 7133:0.12756108 15585:0.13808246 27808:0.41036564 #
0.41768381037127066957026499949279 3:0.16869955 620:0.2986092 4852:0.4511947 11710:0.47919574 11711:0.47919574 14322:0.46855024 #
0.40987268192226572471881240744551 1:0.070289455 863:0.12906761 2232:0.43222526 2513:0.16006432 4058:0.1334748 4388:0.54416203 4743:0.15071122 6142:0.1440751 6562:0.16427004 11402:0.11630236 12479:0.15071122 12811:0.088243067 12812:0.090018377 12845:0.1440751 13504:0.20139587 13505:0.18540664 13506:0.16941743 13507:0.20139587 13508:0.20139587 13509:0.18540664 13510:0.16006432 13511:0.1405192 13512:0.16427004 13513:0.13116612 #
0.82963226063514738939375092741102 8:0.18534784 80:0.13845924 169:0.15071511 291:0.24650685 993:0.18975109 2634:0.24881023 2854:0.23481524 5817:0.26608393 11435:0.25382805 16833:0.32514307 17324:0.34241676 17325:0.34241676 17326:0.34241676 17327:0.34241676 #
-1.8177511190511930205815360750421 3:0.13180259 71:0.28079879 91:0.25583801 110:0.17580752 340:0.21320616 1630:0.32495058 1986:0.41178754 4393:0.33267155 7387:0.43366435 7388:0.43366435 #
0.22782963450024451557140992008499 15:0.036116537 722:0.13381803 1212:0.077416785 4451:0.11397233 11772:0.18555176 11877:0.09920495 11892:0.097600318 11898:0.15779598 11901:0.19442919 12145:0.09646038 12746:0.15215839 13177:0.13301593 13185:0.15052786 13380:0.12330399 14495:0.15577376 14728:0.15052786 15065:0.13925269 15309:0.14899623 15316:0.14899623 15880:0.20306371 15882:0.19281988 21159:0.15390146 22786:0.37110353 23584:0.17991418 32845:0.22057566 32846:0.22057566 32847:0.20306371 32848:0.22057566 32849:0.22057566 32850:0.20306371 32851:0.22057566 32852:0.22057566 #
-0.87636093723849795011915375653189 8:0.10311501 68:0.10646737 505:0.17602284 615:0.051882308 616:0.30969891 620:0.4509221 626:0.054369621 627:0.038122155 1619:0.12611283 3864:0.12864468 4584:0.13156751 4605:0.13925543 5337:0.27004892 5341:0.48739403 7105:0.41385159 7106:0.25222567 7107:0.14471011 7108:0.072355054 #
-0.42097347439360954801657044299645 340:0.29883438 627:0.30409729 2217:0.53853953 2509:0.44166985 6173:0.57717037 #
1.0948147813125206351259066650528 2099:0.2016511 2637:0.21766581 3287:0.21229364 4451:0.15721489 4569:0.24182202 4592:0.22769153 4938:0.24817592 5700:0.20988925 9345:0.26597822 14883:0.30426487 14884:0.30426487 14885:0.30426487 14886:0.30426487 14887:0.30426487 14888:0.30426487 #
0.10737081864541046793970480166536 31:0.15632044 110:0.35178089 224:0.2876876 307:0.25304013 5056:0.63669509 6940:0.23210841 13351:0.34184614 13744:0.35903636 #
1.3439337115393836796783944009803 10:0.077931613 21:0.14841449 1140:0.28223029 1143:0.2309642 2168:0.29104087 5340:0.27478102 13714:0.20339294 22293:0.32141805 33596:0.42190593 33597:0.42190593 33598:0.42190593 #
1.3203728657380595645776111268788 3:0.11213056 8:0.099851891 110:0.14956757 432:0.50600529 779:0.19682905 1625:0.33712155 2942:0.31850994 4648:0.29989833 8863:0.3053048 10147:0.31850994 30646:0.40075505 #
0.71745354188627641356390540749999 618:0.24192806 622:0.2267527 989:0.2267527 1270:0.183971 1581:0.28867045 2077:0.19655825 2082:0.21045762 2083:0.20417619 2945:0.27349511 4581:0.28867045 12472:0.31248033 13449:0.32472026 17892:0.31248033 21273:0.37146264 #
-2 693:0.07973592 1601:0.14529522 6928:0.26959327 6929:0.26959327 6930:0.26959327 6931:0.26959327 6932:0.26959327 6933:0.23566943 6934:0.26959327 6935:0.42853177 6936:0.26959327 6937:0.26959327 6938:0.24818972 6939:0.26959327 6940:0.13277493 #
-0.57825766705263270672787712101126 254:0.3127197 1352:0.41734156 1353:0.41734156 1354:0.41734156 3800:0.45333251 3801:0.41734156 #
-1.9451642805985420725534140728996 224:0.33858743 1639:0.35017049 2050:0.51063228 2051:0.44083649 2052:0.55466855 #
-1.7056931501927974359489326161565 385:0.21862246 650:0.30247015 1276:0.23584431 1422:0.26898098 1878:0.22636645 1879:0.37082988 1880:0.29472619 1881:0.37082988 1882:0.27750432 1883:0.32416713 1884:0.37082988 #
-1.8828782580406615565493666508701 10:0.038835689 110:0.078467794 377:0.11165038 516:0.16017237 1111:0.16338801 1169:0.13474099 3039:0.15250352 3097:0.17149079 3389:0.13693172 4730:0.14064392 5276:0.16338801 5960:0.17149079 5961:0.18379226 5962:0.17149079 5963:0.14669596 5964:0.19355649 5965:0.19355649 5966:0.17149079 5967:0.17686443 5968:0.21024853 5969:0.17686443 5970:0.21024853 5971:0.19355649 5972:0.15733598 5973:0.18379226 5974:0.21024853 5975:0.18379226 5976:0.18379226 5977:0.19355649 5978:0.21024853 5979:0.21024853 5980:0.21024853 5981:0.21024853 #
1.0095722218301723671629588352516 3:0.12493737 262:0.23382273 766:0.29081613 3241:0.27089715 3830:0.3401747 6013:0.32388756 8089:0.39033869 38627:0.44652665 38628:0.44652665 #
0.40867481914147085753086230397457 768:0.14460085 12023:0.27306265 12353:0.19837503 16453:0.32304856 17607:0.34969398 18374:0.38269728 26654:0.38269728 38049:0.41570058 38050:0.41570058 #
0.74660368765296480919602117864997 71:0.24033524 991:0.21729188 2102:0.31332019 6842:0.30171454 15266:0.30171454 25675:0.31332019 29793:0.32885846 29794:0.32885846 33692:0.37117264 39089:0.40318206 #
0.70786861816762136623282231084886 10:0.062609993 71:0.20205139 549:0.14998204 1502:0.18948077 2818:0.2851367 3994:0.25365338 9822:0.26341033 20190:0.27647343 21782:0.27647343 21783:0.26341033 21784:0.33895776 21785:0.33895776 21786:0.33895776 21787:0.33895776 #
-0.01733390730661506923260262169606 3:0.1755008 20:0.26630899 21:0.22064535 381:0.30639553 779:0.30806637 1099:0.48744014 3241:0.380532 3242:0.52764475 #
-1.5506103447239976134142125374638 3:0.10511725 20:0.15950735 25:0.21384163 335:0.37568945 336:0.29858842 337:0.28620923 338:0.75137889 339:0.20247495 #
-1.5983336694530476673747898530564 3:0.12018207 366:0.29014322 3027:0.39542988 3962:0.45139575 6011:0.3214325 6012:0.39542988 6013:0.31155992 6014:0.42953119 #
-1.3991651963817921533461685612565 3:0.096522316 1657:0.24362366 2013:0.18591955 2483:0.21474449 9897:0.24069546 9920:0.56275654 9921:0.34497112 9922:0.34497112 9923:0.34497112 9924:0.34497112 #
-1.5439482276659752812975057167932 262:0.12884256 277:0.18412597 282:0.18412597 377:0.13066138 779:0.12084541 2854:0.15533383 2855:0.21508704 2856:0.20697959 2857:0.20697959 2858:0.24604809 2859:0.41395918 2860:0.22651385 2861:0.18744534 2862:0.24604809 2863:0.24604809 2864:0.21508704 2865:0.24604809 2866:0.24604809 2867:0.24604809 2868:0.24604809 #
1.0786279140002634768791267561028 10:0.087885387 68:0.12240255 289:0.23564208 1882:0.35605219 3218:0.34037447 34304:0.4757936 34305:0.4757936 34306:0.4757936 #
0.66007721470267577412727177943452 10:0.083954178 1759:0.2960161 3080:0.32514915 7106:0.34625727 8453:0.39731824 13141:0.32967889 29422:0.45451084 29423:0.45451084 #
0.49174673275969477126423612389772 399:0.44504404 642:0.233981 4636:0.18902665 14308:0.20800489 15362:0.24641156 22270:0.21273078 29210:0.24641156 36670:0.26766175 36671:0.26766175 36672:0.26766175 36673:0.26766175 36674:0.26766175 36675:0.26766175 36676:0.26766175 #
0.69107456498595642990778742387192 3:0.080363519 8:0.071563445 1107:0.18003568 3670:0.39626187 5076:0.15040189 12061:0.1316994 12788:0.18706177 13552:0.1775977 15719:0.25107774 15720:0.28721952 15721:0.28721952 15722:0.25107774 15723:0.19813094 15724:0.28721952 15725:0.52883321 #
1.2965152786073941282296573263011 627:0.41833857 28935:0.90829122 #
-2 10:1 #
1.4267482492073870758986231521703 141:0.55306035 2856:0.73152536 12061:0.39874175 #
1.0537262155555187082001111775753 20:0.14398746 148:0.10563338 411:0.29646075 430:0.26354825 1639:0.21410114 2023:0.22908182 2636:0.24599133 10969:0.31221065 31479:0.5929215 31480:0.29646075 32489:0.33913526 #
1.4323756359295241047391300526215 15:0.033106733 31:0.067065597 68:0.052016325 87:0.12121829 219:0.070410937 336:0.1606985 377:0.107373 481:0.1606985 507:0.091709659 1143:0.22137414 1624:0.13400364 1700:0.099580646 1811:0.14886831 2205:0.14279222 2207:0.28558445 2468:0.14464593 2582:0.12502338 3660:0.17008866 4632:0.16492088 4855:0.14666101 5628:0.1606985 7963:0.15403609 7973:0.12121829 8258:0.14464593 10937:0.18614124 17579:0.17008866 18556:0.15130834 20392:0.1606985 21031:0.16492088 26648:0.35350215 26649:0.17675108 26650:0.2021938 26651:0.40438759 #
0.37831018610709671312619661875942 3:0.049661111 68:0.045660775 416:0.10301129 669:0.11288133 783:0.1040815 1109:0.12243619 1657:0.12534532 2070:0.29861316 2394:0.12697254 2509:0.11872971 2637:0.12697254 2770:0.14477022 2852:0.12697254 3271:0.15515496 3981:0.083666742 4177:0.10767838 8323:0.11288133 8492:0.11872971 8806:0.13521537 9367:0.11559593 9597:0.14930658 11746:0.14930658 19734:0.13792998 22682:0.14930658 23492:0.13521537 30799:0.16339779 31308:0.177489 31309:0.16339779 31310:0.177489 31311:0.177489 31312:0.177489 31313:0.177489 31314:0.177489 31315:0.177489 31316:0.16339779 31317:0.354978 31318:0.177489 31319:0.177489 31320:0.177489 31321:0.177489 #
1.7966716599337582138673496956471 3:0.14088568 652:0.37072876 1556:0.40018967 1578:0.38359815 1721:0.33371106 5192:0.38359815 7008:0.36021373 10279:0.38359815 #
-2 68:0.16846773 143:0.065615013 219:0.18243456 280:0.11017483 340:0.059278283 376:0.060458023 378:0.13374127 432:0.082683884 499:0.078519076 507:0.059404876 549:0.057952009 669:0.33318505 673:0.08603131 861:0.17783485 992:0.072898217 1144:0.084601544 1329:0.089378729 1661:0.10177991 1811:0.096429355 2232:0.093694314 2450:0.083934709 2566:0.080983818 2991:0.10409236 3162:0.089378729 3981:0.061738528 4628:0.073536664 4748:0.20355982 4873:0.3617186 4874:0.099776775 4875:0.082095526 4876:0.1068274 4877:0.1144904 4878:0.087611847 4879:0.098009892 4880:0.11017483 4881:0.24114574 4882:0.096429355 4883:0.086800769 4884:0.12057287 4885:0.1144904 4886:0.1068274 4887:0.08603131 4888:0.10409236 4889:0.090346888 4890:0.1068274 4891:0.098009892 4892:0.1068274 4893:0.08603131 4894:0.12057287 4895:0.096429355 4896:0.099776775 4897:0.1144904 4898:0.12057287 4899:0.096429355 4900:0.10409236 4901:0.12057287 4902:0.077636391 4903:0.12057287 4904:0.1144904 4905:0.12057287 4906:0.11017483 4907:0.12057287 4908:0.1144904 4909:0.12057287 4910:0.12057287 #
